522 32
1 -0.04393249973805656 0.015699147971140012 0.01177451852453049 -0.040269518654827995 -0.007919611238995221 -0.006424037143544949 0.017608981423782772 -0.026820037061245076 0.019281759135925246 -0.003911574018140392 0.035279351059149054 -0.06681707477266038 0.014485055145255669 -0.016614685369050777 -0.03162349972397486 0.024897499735406774 -0.002643018551882253 -0.0032005740633596564 0.03818074055878377 -0.01176096307190838 0.013189759142362702 0.030720370684759 0.001662018510816981 0.023227537150011846 0.03299918496136174 -0.011984703734250852 -0.0073774814965738055 -0.024671963042001827 -0.020558963013442094 -0.0055211111837168035 0.00121368515876249 0.023052740525195584
2 -0.042183207364462946 0.014732320522801634 0.011195962294087227 -0.038403509307723 -0.007688811261927322 -0.006792773605754845 0.017551811377004168 -0.025856811140946998 0.01968028310264619 -0.0045249811027699835 0.033712603379137604 -0.06391237677241904 0.013854811196479033 -0.015385000218987631 -0.030500320862662397 0.023317867421044282 -0.002951415100262307 -0.003224603764774313 0.03626305695166284 -0.011695094479638908 0.012246433925542559 0.02843830212105048 0.0014132830242402324 0.0223739619986242 0.03183350921059379 -0.012081490657846927 -0.006657603898586459 -0.022987754410352418 -0.019677000037912843 -0.005607415127808465 0.0006518867503130097 0.02131996199681933
3 -0.045596565733848245 0.015286584747164458 0.012716452840288425 -0.04162394352046386 -0.009275056742448008 -0.006571830293154871 0.01928147162275223 -0.028038169846661062 0.02127318853898993 -0.004377622588401449 0.03642752748927242 -0.06886479320259378 0.015025018459572544 -0.016747754901172023 -0.03266339594682784 0.02531150917474286 -0.0037859622987628616 -0.0033926037612441434 0.03977154693478402 -0.011946792550108238 0.013560245185870817 0.03101641544468156 0.0017546603792755566 0.023732245409913925 0.034483509150307345 -0.01251300001686619 -0.007203811352395997 -0.025530264235127997 -0.021570528353309644 -0.006069264221878257 -6.647174086538143e-05 0.023560018636690418
4 -0.04198024509681107 0.01430305637603731 0.011428867961924724 -0.03851722628932516 -0.007849735792128826 -0.00679364152810589 0.017310264204220487 -0.025800094158460886 0.01981875479643075 -0.004318547145713929 0.033659924136887676 -0.063906339034526 0.013776792327539538 -0.015192396437308865 -0.03029045294135598 0.023052131573731115 -0.003172226415459453 -0.0032669433935123655 0.03680920789791447 -0.011274471837820767 0.012546132040816307 0.028529566276120022 0.0011901509432442803 0.0220806035147277 0.032137811090577534 -0.012077754811094943 -0.006397056721704397 -0.02303699969494153 -0.019884000028228772 -0.005322679285182978 0.00029056599435895103 0.02129375444997524
5 -0.04579952800150012 0.01571584889392878 0.012483547172450926 -0.041510226538861696 -0.009114132212246504 -0.006570962370803826 0.01952301879553591 -0.028094886829147174 0.02113471684520537 -0.004584056545457504 0.03648020673152235 -0.06887083094048682 0.015103037328512038 -0.01694035868285079 -0.03287326386813426 0.025577245022056026 -0.0035651509835657154 -0.003350264132506091 0.0392253959885324 -0.012367415191926379 0.01326054707059707 0.03092515128961202 0.0019777924602715088 0.024025603893810428 0.0341792072703236 -0.012516735863618175 -0.00746435852927806 -0.025481018950538885 -0.021363528362993715 -0.006354000064503744 0.00029484901508867724 0.023586226183534512
6 -0.047033339298444464 0.01650992428822408 0.01278292462721199 -0.04296184881186148 -0.009149830096471563 -0.007853056601784631 0.0185818114091232 -0.028697603514613222 0.0206037548036789 -0.004502584903505367 0.037007848555353946 -0.07075452749432891 0.015135358421588843 -0.017146094620226714 -0.034497754933874844 0.025120527770168165 -0.00351167923852116 -0.003660490555152789 0.03927847216749247 -0.012732849226284877 0.013354113192587459 0.030592018961884467 0.002452735855290227 0.024435075292065036 0.03579407527862679 -0.013214735915683394 -0.00653479257840136 -0.02543854691584612 -0.021606981232630544 -0.007180584907473531 0.0005791320328634751 0.023409980907157627
7 -0.04356296060437921 0.015283372303397925 0.012316549063161444 -0.040436195944636766 -0.008402843089938602 -0.007330980408690213 0.017058823593805415 -0.02682462728618845 0.019408784414111983 -0.0039902352551043985 0.034832842739335464 -0.06664817585545939 0.013986666544737732 -0.015763019815780103 -0.03131249030668508 0.024314862229706097 -0.0031351960867908144 -0.0031877647124929354 0.038395098415112086 -0.011880058973831325 0.013307196059602075 0.029830745335750503 0.0008471568583570165 0.02319315659548795 0.034290587992918696 -0.012543529518178035 -0.006718725600626831 -0.02428533302679402 -0.020489392184661517 -0.004871078471136142 0.0006158626945797747 0.02223948991912253
8 -0.04753201930925213 0.016751568449442002 0.01341258824272789 -0.04354656875297865 -0.00971682368339423 -0.007099568735415518 0.019358352874976347 -0.029209411826313418 0.020776352817740512 -0.004266156788171251 0.037763724651406795 -0.07180735371851672 0.015364921153591508 -0.017579529600362888 -0.03399658793647427 0.026938999734828065 -0.003543529461489479 -0.0032743529314471992 0.04090603897987189 -0.013015862851627353 0.014049627365060515 0.03232027485957552 0.0016656862780127638 0.025214431499240592 0.036412038924811665 -0.012999725513937473 -0.00782788238104652 -0.026825196174767744 -0.022026941238436848 -0.005942843202587135 0.000620313676906745 0.024621862504978245
9 -0.047321097736986464 0.016305470414569274 0.013654627466166858 -0.04366474522405541 -0.009884058979485988 -0.007100470693937193 0.019107333264044284 -0.029150470648435692 0.020920254774026426 -0.004051627381818881 0.03770897955651961 -0.07180107920658867 0.01528384272116419 -0.017379372729206522 -0.03377848990060681 0.026662842873894775 -0.003773000043949258 -0.0033183529377828224 0.04147360761029025 -0.012578745204247717 0.014361078347599901 0.032415118001118376 0.0014338039193306958 0.024909568761073638 0.036728274211853595 -0.012995843163391292 -0.007557117667816141 -0.026876372646987803 -0.022242058875431837 -0.005646941248486138 0.0002448234795427233 0.024594627211199087
10 -0.04377388217664488 0.015729470338270653 0.012074509839722476 -0.04031801947356001 -0.008235607793846843 -0.007330078450168538 0.017309843204737475 -0.026883568464066174 0.019264882457826066 -0.004204764661456768 0.03488758783422265 -0.06665445036738746 0.01406774497716505 -0.01596317668693647 -0.03153058834255253 0.02459101909063939 -0.002905725504331035 -0.003143764706157312 0.03782752978469373 -0.012317176621210962 0.01299574507706269 0.029735902194207645 0.0010790392170390844 0.023498019333654904 0.033974352705876766 -0.012547411868724214 -0.006989490313857209 -0.024234156554573963 -0.020274274547666532 -0.00516698042523714 0.0009913528919437964 0.022266725212901683
11 -0.050215179839869964 0.016799159743823112 0.013948799988284008 -0.04580889982637018 -0.010237199913244694 -0.007856920006452129 0.0198406800016528 -0.030867899828590454 0.022306660108733924 -0.0042344200151273985 0.03975781966117211 -0.07558083962881938 0.015479859891347586 -0.018299260245839832 -0.03523298020241782 0.027132119397865608 -0.003259700020425953 -0.004017199989175424 0.04401512014679611 -0.013371440095943399 0.01427001997246407 0.03411680014163721 0.002110419969831128 0.026529599619098006 0.03763849971815944 -0.014429820137593197 -0.00796806008904241 -0.027848099797265605 -0.022771920004161075 -0.006982500032609096 0.00018101995105098467 0.02511917975032702
12 -0.06359073486326415 0.02272922403597254 0.02021451009902509 -0.060892326291650534 -0.014934632822643129 -0.005129571575837742 0.028249653172864857 -0.03996830588878264 0.029173265063983142 -0.006723265230123486 0.05008175364001749 -0.09911675528594655 0.02000563228871122 -0.022945857451360303 -0.04861373387571728 0.03542379551799968 -0.005093204079086569 -0.00684028556029911 0.055226081214864185 -0.01651457155940636 0.01634859171403781 0.043148265235667706 0.005208326529174549 0.03367538817169867 0.051239019478386154 -0.01745479613808649 -0.009377346924097486 -0.036128408507187376 -0.02549889797406575 -0.012885938793966044 0.002706000033162572 0.03184728515904625
13 -0.06883679593471353 0.02465193831285804 0.02193102037771106 -0.06582277514306563 -0.016514918500823633 -0.006276408285829143 0.02936373484025891 -0.043040999680707334 0.030172122209998115 -0.006699040769694411 0.05364599842245558 -0.10651744892393068 0.021390713981176937 -0.0248507146608638 -0.05293748909560013 0.03737361181399082 -0.005699204065366553 -0.007311754945810523 0.05848765277484318 -0.017637040979247922 0.0175466937783925 0.04547779569616161 0.006332632652555155 0.03590475561154284 0.05552289706217695 -0.0186805512128892 -0.009244510190019727 -0.0387792657070071 -0.027586428654066533 -0.01458753059646091 0.0026273061551049122 0.03410791785798359
14 -0.06381872936496318 0.022924478696950246 0.02065147906690375 -0.06175366643583402 -0.015039021003758535 -0.004819375132380325 0.028224145957400044 -0.03989947891276794 0.02887424973838885 -0.005892229101543005 0.05062710267278211 -0.09943237514865662 0.019817978785795276 -0.023195541981749557 -0.048398645010214146 0.035237853751217095 -0.004507187495012961 -0.007370958172941755 0.055930791269929614 -0.016622958467147935 0.0168104998756462 0.043703708241082495 0.005082145837150165 0.03398239625918601 0.05170849908245145 -0.01736547939556961 -0.009781999977955516 -0.036069708700476134 -0.025583208350629622 -0.013087562514404757 0.0021876875186232305 0.031771916095749475
15 -0.055636511201009854 0.019879355057976986 0.017670511091030978 -0.053730311051347394 -0.0133265556155594 -0.0010633112357936625 0.02503948914947816 -0.035280910847682714 0.02881491102743894 -0.003711133319221618 0.042519021190107906 -0.08710837714477546 0.020333666530334287 -0.019418311524431273 -0.0435961994368376 0.03120026617673122 -0.005296288868541726 -0.006880488772165134 0.048041111173612684 -0.01586384450007851 0.011611755578067257 0.04000708847500694 0.00401168891047645 0.03167904471564624 0.045824843818425304 -0.015961578017757144 -0.010761244390677247 -0.03414960025095044 -0.021154511179580972 -0.010880133320784403 0.0013544222044098813 0.025607421562179097
16 -0.059341785810396515 0.02217988042771356 0.018865952366814737 -0.05741378564423593 -0.014078142909576334 -0.0016032620512976877 0.02666704789208736 -0.038268499707642366 0.03068892847624652 -0.003406571416538403 0.04596718935187839 -0.09359371360014415 0.02086640463121945 -0.020625452820587226 -0.04723476129306835 0.033835547093379624 -0.005297380935406268 -0.00741257130374877 0.05172504769299329 -0.01637297624672231 0.012020428590490372 0.04231954718194347 0.004494238119583488 0.03434207171778239 0.0485398326640106 -0.0172148812065903 -0.010863571386185608 -0.03665578599386555 -0.021991571493604818 -0.011227285701482157 0.0016846666516184563 0.02778671357858305
17 -0.059882762017185176 0.02143690423985217 0.019170738079126403 -0.05748533328144168 -0.01425288099935209 -0.001119714409047187 0.026733547893984775 -0.038276118768927905 0.030787380864023276 -0.004393690474552429 0.045702356046863964 -0.09325835646484934 0.02188911888792756 -0.020572071863647408 -0.04717990415104266 0.033304761384247934 -0.005675595216979716 -0.007527737975622239 0.05126254768852266 -0.016746833395223974 0.013124523837177549 0.0430588566925421 0.004909500026509964 0.03366016695231554 0.048801046959678865 -0.01683011930184702 -0.011895738034841738 -0.036622738361551284 -0.02266621434474863 -0.01166214284187715 0.0020882856848142444 0.027325665935807462
18 -0.06414915010091135 0.023086799453085404 0.020529349996832025 -0.06167857495092903 -0.015849075065034413 -0.0018370001249422784 0.02725297524157213 -0.04038954968636972 0.03186127488443162 -0.003761299971210974 0.048795423808769556 -0.09984892424836289 0.02089272483426612 -0.02150192544704623 -0.04892989935760852 0.03591784943564562 -0.005853274976107059 -0.00865462487890909 0.0538791750848759 -0.017681325075682253 0.012880475022029714 0.04441367454855936 0.004340075044456171 0.03503610033658333 0.05068132432352286 -0.01832642528343058 -0.0099977499776287 -0.039272475307916464 -0.02220895006794308 -0.013126699958229437 0.0026119499874766917 0.03015104930382222
19 -0.06908786499145601 0.025340053471744475 0.02209213512931554 -0.06616897292740366 -0.016889864950408572 -0.0017253785115679272 0.029577297577005182 -0.04240151318623936 0.03441743232699967 -0.0040774053709724655 0.05310013386298198 -0.10784240458726983 0.022839783634235326 -0.023771486967775302 -0.05307648578545431 0.03798399940982612 -0.006760405382059666 -0.008832945814434867 0.0587458649675387 -0.019206297379364638 0.013912837845792465 0.04810399950853222 0.0050270270715102655 0.03856751388819838 0.05436521548010107 -0.01941091921115593 -0.010777405378207363 -0.04242178411958456 -0.02487732439712508 -0.014512459407686381 0.002475567558478262 0.03181748572309073
20 -0.07144487938261591 0.030691959499381482 0.021786079287994652 -0.06984071982093155 -0.01881791993044317 -0.002714120070450008 0.03436968015506864 -0.04427651937818155 0.032145599792711435 -0.005691879900405183 0.05915767891798168 -0.1223171577975154 0.020633200153242798 -0.02803136060887482 -0.06172719883266836 0.041035839044488966 -0.007380759986117483 -0.007889719769009389 0.06508455988019705 -0.018770839897915722 0.009439000310376287 0.05313223899807781 0.008095119999634335 0.04421312002465129 0.06154231946915388 -0.02109740040265024 -0.011213519838638603 -0.04683223982108757 -0.029804519740864635 -0.013777879904955626 0.004785000033443794 0.03660259882453829
21 -0.02953929101083001 0.010186416528692158 0.011571374683020016 -0.028463541816260356 -0.007784999876700264 -0.002305958298772263 0.01244116626427664 -0.01860945824106845 0.015855791624441434 -0.006855041690869257 0.020943791258711524 -0.04373366560685099 0.008480624827219193 -0.010492458299268037 -0.02274737518261342 0.014643041906917157 -0.002066833300583918 -0.0004529166350645634 0.023119833538657986 -0.007695999956922606 0.008143083534378093 0.022425416876406718 0.0029502082834369503 0.018578791573721293 0.019197458546841517 -0.006479541615893443 -0.004734458219900262 -0.015089375031796711 -0.013752375232191602 -0.004965916603396181 0.0006687917169377519 0.016578458055543404
22 -0.029970999328118825 0.009680958178554041 0.010839583002962172 -0.029126666820957325 -0.007474124886357458 -0.00259779162297491 0.01285887460350447 -0.017675499907151487 0.015769999959350873 -0.00611945836377951 0.020069582914099254 -0.04299299894652601 0.008160833141118928 -0.010519791627302766 -0.023448625186574645 0.014702166908440025 -0.002457833289857566 -0.00042937497346429154 0.022754250215560507 -0.007504624964591737 0.009145708553357204 0.022011500201188028 0.003083083276578691 0.018414124894964818 0.019152291885499533 -0.006517041629801194 -0.003940374893621386 -0.01609837503140928 -0.013380416889655558 -0.005115333301849508 0.0009847500526423876 0.016841041385002125
23 -0.07426233265990352 0.030800124421754543 0.022055957594905824 -0.07251795817379995 -0.017635374921762075 -0.003588333410637764 0.034084750164765865 -0.0464285826771326 0.03360724975451982 -0.007040749921240301 0.061419123885571025 -0.12505616439254177 0.023486791835239273 -0.029738458959400305 -0.0641169154405361 0.04318991568288766 -0.006660208329170321 -0.00946799975220832 0.0676229582071149 -0.01937037495857415 0.010930416998841489 0.055102957267081365 0.008231291638518693 0.04462720835969473 0.0640194994242241 -0.022563250415259972 -0.010630499848048203 -0.04665712479375846 -0.02953412474016659 -0.013680958247277886 0.005187041668250458 0.038907707115868106
24 -0.029019249356982375 0.010233458194610042 0.010840208017422507 -0.029382916841617163 -0.00838391652481126 -0.0018316666391910985 0.012706916267537357 -0.01763670822644296 0.015765541621173423 -0.0069300833565648645 0.019927791244602606 -0.043147498958812015 0.007922416476806879 -0.010791249966132455 -0.023417458515420247 0.01516816690612662 -0.0014653749761540287 0.0006520833582423317 0.02312108352877355 -0.008208458302154517 0.008927625208646836 0.022655541853358347 0.0026462916115027233 0.018656333239050582 0.019188541909291718 -0.005496624973602593 -0.0037159165488750054 -0.015398375017563618 -0.014229208548689106 -0.005508874955315453 0.0007310833849866564 0.017510499727601807
25 -0.03519447758267431 0.012332825961968174 0.011260477901922295 -0.029330608880390293 -0.008755434601841009 -0.0038085652378630703 0.012128738724403893 -0.020443956453717597 0.020054217311553657 -0.005065347854447875 0.022511564777232707 -0.05000525975660623 0.009435738983523586 -0.012000652161710288 -0.023531913099324574 0.01780891329880156 -0.004151782595410781 0.0013437826482518374 0.026829565429817074 -0.008253260885122354 0.008935782825574279 0.02359204370852398 0.0018053042965576701 0.01826539124696232 0.025765782713120723 -0.005560913021326996 -0.001542173843557501 -0.01738417398566684 -0.015414304485286424 -0.004305652150398363 0.0002908695757429561 0.017682390950579684
26 -0.03444417320070383 0.011578521600155078 0.010901608337324275 -0.028710304536735235 -0.007378825917207312 -0.005592565239488106 0.012311173519423313 -0.020598565213098798 0.01984926079825053 -0.005331391333880753 0.022386173469662343 -0.04974582499783972 0.009517304199423803 -0.01227730435177522 -0.023455565294210355 0.016953739403423086 -0.004632739130022895 0.0008866522276429864 0.02489965240997465 -0.00903408695012331 0.009760434992368455 0.02278465235038944 0.0010960869106423595 0.020106434713259503 0.02432947841209724 -0.005529739108802143 -0.003238565188518766 -0.019884608756199115 -0.014525956662154109 -0.0036056955830882425 0.0008342608546271273 0.01746413007925224
27 -0.11502591310873748 0.040743172887469765 0.037932608031121126 -0.11025782538901853 -0.030293522107809702 -0.00612817422243888 0.05119721714467944 -0.06910073856377731 0.0532300428426622 -0.012870478135047724 0.09006043263513636 -0.18003987078554928 0.0346363907902623 -0.0460736092680473 -0.08978821600422911 0.06498634716009964 -0.008403000053595346 -0.009873738818619724 0.09441060680167182 -0.0311636522009908 0.02256365204938566 0.08008065143266045 0.00937669557527482 0.0624671306197896 0.08796930224027323 -0.030024261451731232 -0.017245738817702815 -0.06750208743766922 -0.04540030421365215 -0.025557521634492212 0.006291391508927083 0.05879708619423858
28 -0.03501804279284957 0.011867086838363954 0.01144756485566335 -0.028639304552875135 -0.007453782432687307 -0.00527213044994784 0.0122521300774837 -0.01990130432355015 0.018744652093712077 -0.004469652199591307 0.02291095607569846 -0.049271477204140116 0.008571956392742046 -0.011723347843381698 -0.023875521809753518 0.017714652480841007 -0.0028713478165192773 0.0002836087837552085 0.02472382634068313 -0.008835695673833075 0.009982695863784655 0.02289273934033902 0.002353260835187267 0.020251739084335935 0.024201434920541942 -0.00420091298608737 -0.0020769130370235475 -0.01928291310816902 -0.015174174059369683 -0.0032639999307044172 0.00037186957247879195 0.017673086607828736
29 -0.03446343408533088 0.011179782490691414 0.011259173544164261 -0.028795869778031887 -0.006856738973748061 -0.005407478280729898 0.012445869205175373 -0.020524913025007623 0.01870482602743837 -0.004732347857814444 0.022807434327778934 -0.049682781545688275 0.008574608556480835 -0.011434086978071085 -0.02359686965001342 0.01683630464780752 -0.0035055652083626583 0.00044547831614339805 0.024705261113527027 -0.009501782620487653 0.009390913253731054 0.02360660888497596 0.0013581303950480144 0.0204773042781238 0.02433147840708008 -0.004973130396177547 -0.0020105651916389393 -0.02020373919146115 -0.01500165233269597 -0.003484260797014703 0.0008203478266849467 0.017643912690286728
30 -0.03579156454045163 0.012468173775983893 0.011066782252822557 -0.028707000163748213 -0.008715651994545782 -0.0035458695821707015 0.012232260462200351 -0.02139134778458949 0.02005156514781487 -0.005354608729881558 0.02223291261749261 -0.05048560758586973 0.010069956385490039 -0.01216256522330577 -0.02351334791266076 0.01847495679723342 -0.0035600434740721857 0.0019886522242576693 0.02646600022284395 -0.008478826099156362 0.008805739359282281 0.023005565446194098 0.0017389999601342108 0.017827521698326684 0.025593304454915873 -0.005340652155016711 -0.0019906521040905754 -0.01735500010355558 -0.014949913177786031 -0.00531669561346264 0.00013960870337146133 0.01749930399692739
31 -0.03290760798794825 0.013569086778696383 0.010403651794742631 -0.029044739259204463 -0.008045999767921825 -0.006314478251506048 0.014577564899809659 -0.019035347761414217 0.016143695547488398 -0.002652782670338638 0.02198308654655905 -0.04827282480571581 0.01101243464733631 -0.013256391309171348 -0.018921869695591537 0.012601695932022742 -0.0039613912674173225 0.003172391291667262 0.02563113068311435 -0.00599621747159804 0.006525435001569112 0.01691569575695726 -0.0004924782210171385 0.018526695529505123 0.023744261044118066 -0.0020033042300897446 -0.000763652062944501 -0.015920000109674773 -0.010460565413940576 -0.0039505652131755714 0.00044091305291816673 0.01775273877074537
32 -0.03519447756242817 0.01233282594172203 0.011260521400760374 -0.027971913207970236 -0.007396738960422859 -0.005167304361036614 0.012128738734526965 -0.020444000003171033 0.020054260810391734 -0.005065391333039809 0.022511564777232707 -0.05000525978191391 0.009435695509993187 -0.012000695665609901 -0.02353186964604032 0.017808869850578838 -0.004151782610595388 0.0013437826811518196 0.02547086980295084 -0.008253260859814674 0.010294478477748193 0.02223334801585778 0.001805304316803813 0.019624086899136233 0.024407087101439094 -0.005560913026388532 -0.0029008695425506194 -0.01874286963784075 -0.014055608828050976 -0.004305608631314143 0.00029091303155797977 0.017682390950579684
33 -0.035053216700401645 0.01109156509577904 0.011492043121150979 -0.028889391490298767 -0.007202347669036775 -0.004699608700795342 0.01249826050353358 -0.019907260845091358 0.018433478190158697 -0.0040775652438321194 0.022509564767065254 -0.04920312938401881 0.008207738991705295 -0.011681565230347864 -0.023056173990683063 0.017687478573466447 -0.002779130401272003 0.0011640000802404045 0.025914695883250755 -0.009128304360353428 0.009682130650617182 0.023083174115289814 0.0017077390996786087 0.019523956471264526 0.024017652299295623 -0.0048703043057289706 -0.0013318695545540718 -0.019257043558552497 -0.014731652331766267 -0.0036043477543305767 0.00029952175226872384 0.018282782250974815
34 -0.03521373844705522 0.011934086832258365 0.01161808660760036 -0.02805747844926689 -0.006874652016963607 -0.004982217402278405 0.012263434420279025 -0.020370347815079858 0.018909826039579577 -0.004466347856973501 0.022932825635349298 -0.04994221632976247 0.008492999867050221 -0.011157478291905769 -0.023673174001843385 0.017691435094963272 -0.0030246086889351514 0.0009026087696522312 0.025276478506503223 -0.008720956530179019 0.00992495673911079 0.023055304550444303 0.002067347801209468 0.019994956464000534 0.02440908709642194 -0.005004304313763935 -0.001672869545670793 -0.01906200007310279 -0.014531304498592837 -0.0041841738452406034 0.00027700000361579913 0.01786217356161417
35 -0.030741825375867927 0.012529434666604451 0.011175477922813076 -0.02456060884287581 -0.007772434588253457 -0.003821782620988138 0.013641130067813008 -0.018442173916137897 0.01958352167908426 -0.005553260837231115 0.019922216934070962 -0.04648152062082258 0.008905434626681 -0.010728086932035892 -0.022248000129247488 0.015449478503559594 -0.003551565167625718 -0.0002259999771764421 0.022313261075633698 -0.0069704782420202446 0.009113478443949767 0.019552652324225917 0.0002558695496586354 0.01906782594944715 0.023322826322249097 -0.004340347878852575 -0.005011608663430114 -0.019196260947192848 -0.01215160885413238 -0.004476999957620612 -9.678261678503907e-05 0.014400608356758628
36 -0.032898303642666535 0.012543434630218975 0.010699564823880792 -0.03008104363233661 -0.008907086731557249 -0.005747913022313024 0.014512521412183085 -0.02000791298443168 0.01543121727730107 -0.0021923478792735336 0.02121747786219677 -0.048162737851152604 0.01146752159690115 -0.013241826092227078 -0.018010304481519954 0.012096130721898668 -0.004036999964307103 0.0024015217482962685 0.025162739375525194 -0.0060983913730445274 0.006938087169344172 0.017737000102541693 3.6956563986756876e-05 0.01848821726921217 0.024305521915464298 -0.002646825979868679 -0.0009348259937605294 -0.016234478373561338 -0.011449087148598072 -0.00368121738606335 0.0005881739403855096 0.016822608370009973
37 -0.03459739060465084 0.01219747812770631 0.011454217049860112 -0.028595521924612316 -0.007436521567718085 -0.005430000016728983 0.012025216996730507 -0.01949660867229914 0.020056912974130526 -0.004776130457606126 0.022790216936972803 -0.049524911952650415 0.008801478108026735 -0.01183878260401442 -0.023550434832704133 0.01714282635214698 -0.004743521731933984 0.0006989131051459876 0.025834435009923967 -0.008027695645780666 0.010424521944040189 0.02281982627818766 0.0018716086532272723 0.02006195644777187 0.024579565359643944 -0.005781173892698817 -0.002452391282017545 -0.01877204351995201 -0.014520000135551369 -0.003294565168249866 0.00044217390392947454 0.017865477904231975
38 -0.03503395581577459 0.011490304205242706 0.011134477914310992 -0.028803826249002115 -0.0077244346124960275 -0.004884695659553551 0.01236356481778152 -0.01998091303318253 0.019577912960970854 -0.004676608719898429 0.022088303908948666 -0.04926617283617025 0.009150434634648263 -0.012524782604051998 -0.022914869634879997 0.017804913329082014 -0.003906304322932239 0.001605173991739993 0.026109087179698374 -0.008660608689989085 0.010051652389254583 0.02226121758070329 0.0014456956152729538 0.019153086906400225 0.024015652304312782 -0.005426913018353567 -0.0025598695514338983 -0.01893791312329046 -0.014255956661224405 -0.0037257825404041164 0.0003134347802109045 0.018102999639940328
39 -0.03559586888624598 0.012401173782089481 0.010896260500885546 -0.029288826267356457 -0.009294782410269481 -0.003835782629840137 0.012220956119405024 -0.020922304293059784 0.019886391201947372 -0.005357913072499366 0.022211043057841776 -0.04981486846024737 0.010148912911181864 -0.0127284347747817 -0.02371569572057089 0.01849817418311115 -0.0034067826016563113 0.0013696522383606466 0.025913348057023857 -0.008593565242810419 0.008863478483956145 0.022843000236088814 0.0020249129941120095 0.018084304318662085 0.025385652279035876 -0.004537260827340145 -0.0023946955954433297 -0.01757591313862181 -0.015592782738562875 -0.004396521698926454 0.0002344782722344541 0.017310217043141955
40 -0.03563104279379806 0.01162565203950457 0.010940738766373175 -0.029538913204780092 -0.00904334764661895 -0.0032632608806876383 0.012467086545454906 -0.020928260814600988 0.01957521729839399 -0.004965826116740177 0.02180965174920857 -0.049746520640126066 0.009784695510145115 -0.012686652161747865 -0.022896347901500438 0.018471000275736595 -0.003314565186409037 0.0022500435348458427 0.027104217599591484 -0.008886173929330771 0.008562913270788673 0.023033435011039608 0.0013793912586033516 0.017356521705590676 0.02520186965778956 -0.005206652146981745 -0.001649652112973854 -0.017550043589005287 -0.01515026101095946 -0.0047368695225526135 0.000162130452024386 0.017919912686288033
41 -0.035978912436605795 0.01088313032359229 0.009779869176703 -0.03209008719853085 -0.008323434618828089 -0.004798739148653745 0.013050086603945365 -0.0180709998404263 0.015927086887962145 -0.0026953913899057584 0.024513216908140432 -0.0505916074654796 0.01062378243453998 -0.013441869499333932 -0.024822304475769077 0.016682435026703624 -0.004676565197650748 -0.001302826090503241 0.029624565438691363 -0.008763260953381414 0.008971826256880455 0.021299608775576497 -0.0012196956209347422 0.018133217243619427 0.028584826274511768 -0.0025054347529278502 0.0002033913042396307 -0.019438347925366226 -0.011350434977034836 -0.007743347820866367 0.0023616956595619936 0.01824691274162868
42 -0.0350412601787273 0.011713869434416942 0.010707869189386458 -0.029445391492513212 -0.008697738951330235 -0.003971130460622194 0.012414695247096697 -0.021545912994517257 0.01984656513567366 -0.0056206087307225025 0.022107521309922246 -0.05022617280179554 0.010151565074920654 -0.012439173909471087 -0.023437043560830796 0.017619826350077663 -0.004040999993499692 0.0015315217707488362 0.025894782829867756 -0.009259652189464996 0.008271695873902543 0.02355686978072576 0.0010297825539727573 0.01830986951244995 0.02551569576557402 -0.005309478237430322 -0.0023283477500587214 -0.018496739221913944 -0.015420261011889164 -0.004616782565236739 0.0006829565264406087 0.017281043125599947
43 -0.037044434160318065 0.010916304226038452 0.009998782196540244 -0.03064517416667355 -0.009112912878070189 -0.005933173935931257 0.013714869213088052 -0.01966186941211598 0.017111956430396633 -0.00329913050138756 0.024604825602854482 -0.05080260743220013 0.010046608555453333 -0.0131752173094909 -0.023605565353215712 0.01683234807790976 -0.00395873913151698 0.00017395651008447876 0.02823004368490175 -0.00791278271556265 0.00996565231901553 0.021608782677820116 -0.0008096956377773059 0.02002395638619023 0.027476913237478584 -0.0030242608263506554 4.017392537840035e-05 -0.020243782696248356 -0.011503043680694764 -0.006032999969370987 0.0019649565279984886 0.019161086630724047
44 -0.10914560890144101 0.04148447695795609 0.03754273868854279 -0.10827943368855378 -0.02558417398604038 -0.004665782675147057 0.0507860008586684 -0.06440725989396805 0.05094217394134435 -0.008923130292121483 0.08367399823834168 -0.17312882373959798 0.033496304262054924 -0.040649609501997475 -0.08569812971551943 0.061632520630550774 -0.00665734787269131 -0.011899173546344568 0.09507878270486127 -0.02715439144420721 0.025523087119875963 0.0756650862825589 0.007057782632055814 0.059808782352458525 0.08761621572320229 -0.029978870201612943 -0.017651043617186824 -0.06467326049966252 -0.046086652308155826 -0.019814912877652958 0.0042428261279027265 0.05449669453335683
45 -0.03342591245840911 0.01162121728702914 0.010910086556775597 -0.030663608877069277 -0.008152478050602518 -0.0057498695690731474 0.013512043115358962 -0.01999895643498546 0.015931347734294832 -0.002694347903699331 0.022918130007936903 -0.04864569439087063 0.01306604328720309 -0.014013086932802411 -0.01988760891633675 0.015282913346511676 -0.003914869525824147 -0.0010661303936301367 0.027713217600451215 -0.007673521836176919 0.007736652363192938 0.02068660877968954 1.8304410016002215e-05 0.020259825892382018 0.024958913206912414 -0.0037599129490959254 0.0004658695834223181 -0.018180739257925026 -0.01163791322830113 -0.00427752170893971 0.002802000039715178 0.017426043141471302
46 -0.11747886949983101 0.04375086842185777 0.04050978210390262 -0.11543839078639513 -0.028868609219384583 -0.004154652438086012 0.0553283483883285 -0.0695645647406902 0.05429369517419811 -0.009059260660053595 0.09005151900688045 -0.1845548268225368 0.03637265143587011 -0.04423369639698649 -0.09116621577160676 0.06683891249375175 -0.008071608821173077 -0.012188738741552579 0.10190504222460416 -0.02870365221600008 0.02785995654108853 0.08139565175793984 0.008358608723780058 0.06361473976310504 0.09302151994779706 -0.030981826545346692 -0.0195100868966066 -0.0704186092227009 -0.049973000187690006 -0.02153530425351599 0.0034200869989075254 0.05971895548535268
47 -0.03499878190822252 0.01226582594782762 0.011089999648823363 -0.02855373931157848 -0.007975869376146558 -0.005457217408706049 0.01211743439173164 -0.019974956511641325 0.019889086864524237 -0.0050686956756576165 0.02248969521758187 -0.049334520656291556 0.009514652035685012 -0.01256656521708583 -0.02373421745395045 0.017832087236456573 -0.003998521738179514 0.0007247826952547969 0.024918217637130747 -0.008368000003468731 0.010352217602422055 0.022070782805752497 0.002091217350781612 0.019880869519471635 0.024199434925559097 -0.0047575216987119666 -0.003304913033903374 -0.018963782672906982 -0.01469847838882782 -0.003385434716777957 0.0003857826004209726 0.01749330399679425
48 -0.033748303736185495 0.0111236520365903 0.011702216951918039 -0.0305985653894427 -0.008538608520251253 -0.0036786956872041946 0.014410303935975484 -0.019233391198845904 0.01582117382760929 -0.0017906957731136808 0.022903564750500347 -0.048198477000645966 0.010854130256041612 -0.012578739107677551 -0.020475434984647385 0.017109956847928952 -0.0038126956142545882 -0.0014788260703663464 0.0268919133004206 -0.006844217470801516 0.007775043686548167 0.020125347877974094 0.0006617826710799304 0.0190722606924322 0.025273391463206677 -0.0014126520937956545 0.00019652177655623981 -0.018328000119452 -0.012066478441778125 -0.00547565216117579 0.0033181739351636243 0.018658738795910842
49 -0.11529804354801815 0.038998651211959834 0.036907129789419145 -0.11013856453254171 -0.030957087326501292 -0.006650130745306935 0.051019043190931174 -0.06952182553789538 0.05421904282158484 -0.012325999868588278 0.08915578046024007 -0.1811247404421801 0.03475291252581646 -0.04517708748481591 -0.0895517812029499 0.06459469500038287 -0.008590913090460084 -0.009297304012326767 0.09607060684862992 -0.030517608691614285 0.021621478124238227 0.08158030360684042 0.010130260790901957 0.06165347849752795 0.08905891092170191 -0.03083143538147535 -0.017729956228994644 -0.06895547870131534 -0.046179304172730314 -0.024794043310027082 0.005486652355023619 0.05729773838760119
50 -0.044052272188392555 0.017604681647340345 0.019090908762088722 -0.041911545587936416 -0.011717045245776799 -0.00487059083173914 0.020982226878417845 -0.027803500071802937 0.02186363610566001 -0.001547500007993883 0.034055362672502684 -0.06546954526857007 0.011834454619516195 -0.01852549979726477 -0.029231773075562986 0.025978454179659657 -0.002393136383034289 -0.002764863710829311 0.03773741010809317 -0.011651000115142035 0.013851727542384073 0.026250181971177386 0.0013966817972356114 0.0202194088593718 0.030399136332562193 -0.010285954636690969 -0.006792545415588724 -0.02413695473412438 -0.016827636186710813 -0.0068567272603765805 0.0003625000615350225 0.02276268197668039
51 -0.03515659016027877 0.013474727122229524 0.012847090480962916 -0.031494682019745764 -0.007754090675338044 -0.0043255453968992115 0.015258408707185563 -0.02023154537759679 0.016548408983825622 -0.002700636438517408 0.022031908685510807 -0.05015290776182982 0.011948636192755657 -0.014804636341233907 -0.01895540929928591 0.013948454876134003 -0.0037897272360913285 0.0008684090836058286 0.02588068207048557 -0.008024500096904707 0.007018454735357823 0.019869591030080548 0.0005347273214614357 0.019084408953362567 0.024124318342232567 -0.004148590807083317 0.00043322734762279487 -0.017899090997657782 -0.012946363848724022 -0.0035324091017669575 0.0015761364222932818 0.017216999634084375
52 -0.035420726582577285 0.010148545291237744 0.01085377234829304 -0.03236295473338528 -0.008994545268995518 -0.004787045480456568 0.013061090510084548 -0.018964181721623227 0.015697363584133036 -0.0025792273617381315 0.02496877222306053 -0.05078513506371316 0.011792499833146312 -0.012358727225959725 -0.02438545468844082 0.016257136633860435 -0.0040260454089465466 -0.0004497272404312918 0.030618000219957055 -0.008554181888360868 0.009270091099262407 0.021151909176048568 -0.0008240908606570553 0.017997499835804443 0.028905954680257393 -0.002701636335008185 -0.0005090908856469799 -0.017619045604078565 -0.011838727487801489 -0.007933499963573095 0.0022310909040573856 0.017198454260572114
53 -0.03653468111191283 0.010183227098340549 0.011082635959941068 -0.03085236383644356 -0.009819908903657713 -0.005973045485337603 0.013756090510551903 -0.020627363546571523 0.016936090833041817 -0.0032104091601054693 0.025064544949352487 -0.05100572593801189 0.011189090777737543 -0.012079954482032917 -0.02311340924213503 0.016413863914666846 -0.003275590885261243 0.0010941818420013244 0.02916009111372246 -0.007665045548823069 0.010309091073312711 0.021475136437485078 -0.00039545451462882653 0.01997418166667392 0.0277476819597227 -0.0032440454117683907 -0.0006797272362746298 -0.01846109104636443 -0.011998272950718687 -0.006145409027918835 0.0018163181756046304 0.018154181508262725
54 -0.03600131742529233 0.011876545317301696 0.011452954183120957 -0.02879504561000927 -0.008041454367313154 -0.003745727299246937 0.012959045048443262 -0.020100045467684555 0.02041999993062663 -0.005489318194370505 0.023534226792187175 -0.051429907960647885 0.009923454395241359 -0.013010181825269352 -0.023828772812108087 0.018036091229243375 -0.004632636335868897 0.0023172273530772973 0.027962363880677996 -0.008916999996555123 0.009851454783612016 0.02262927289120853 0.0005291818039371389 0.02035881811488335 0.025472454673779957 -0.005820545436025978 -0.0037882727033733813 -0.01918377282399061 -0.015249136515856 -0.004184681771386584 -0.0003051363799551671 0.01872609050372954
55 -0.03447340834959918 0.012301863497916864 0.012492681408978322 -0.03212927292439748 -0.007681227045064919 -0.005265363559539599 0.014737499597355385 -0.02054436354956124 0.016188454427968034 -0.002519590970636769 0.022942545061761684 -0.04925608958794989 0.011333454357472047 -0.015455909053509293 -0.01927654565290802 0.014101727598410269 -0.0030621817872584375 0.00027263638118959284 0.025925772984258154 -0.007726954620342109 0.007845909284448928 0.01879663647427647 0.0011235909491502257 0.018993545313027094 0.02380872743246569 -0.0033904999145306647 0.00032295460616958076 -0.017490591015799015 -0.01280695476518965 -0.0043168181860396134 0.000944318252798191 0.01759222692767666
56 -0.035707181044430894 0.014387590714084747 0.012350045033434237 -0.03086759108224545 -0.009030317939918446 -0.006423090900749561 0.015991545107681304 -0.02005545449289705 0.015144954456693747 -0.00483350002997957 0.023731499584920875 -0.04921577139016749 0.012526863499839568 -0.012849090934402986 -0.019224954647308386 0.01287304574824785 -0.004000136309927752 0.001408136349213733 0.02570586391216652 -0.005510772796696983 0.0074210911274845285 0.0179445001042702 0.0007743636524537578 0.019070727160644972 0.023282000170597297 -0.0023252271613190796 -0.0021802271909440274 -0.01809354553948982 -0.011556545664709782 -0.004248363637915728 0.0003905909146520902 0.017526908756487748
57 -0.049704544955271886 0.017647908979349515 0.01579677245833657 -0.042258227318101985 -0.010732726903039624 -0.006998818088587458 0.01935677221891555 -0.026244636269191025 0.02353918180927973 -0.0026104091574035756 0.034230590285997925 -0.0705425889239202 0.012299590802781908 -0.016645863553011706 -0.03408509091241285 0.021959227337488715 -0.003377272693218071 0.00017518174982714382 0.03737959172047505 -0.012545363836001012 0.014471363707509061 0.03036036396885968 0.0006647727648007938 0.026970545507290146 0.035750909242779016 -0.01026986347708523 -0.0034564999567175455 -0.02413577319120205 -0.017980863915661095 -0.010140272801932455 0.0012790000159425704 0.022310181404463947
58 -0.06601014146248677 0.02701518986196745 0.014062999947262662 -0.06525014371921618 -0.014335190905036316 -0.005065809784268606 0.027557952562347054 -0.03903704783269426 0.03703723820425304 -0.001800000002341611 0.05698095140923258 -0.09987266643743385 0.025306999566964805 -0.02772600037271678 -0.048605142843111286 0.039050475685923756 -0.003961285706498616 -0.0016032857764955786 0.05404452410792666 -0.014830761617520779 0.021071857329280602 0.044669761487360425 0.001000285791676669 0.03938099939703187 0.052595476276196894 -0.013579095115086861 -0.012990142706604231 -0.03924347552293468 -0.028690666811252458 -0.00458861895216008 0.0007615714843961454 0.03584814193059823
59 -0.05715318921665173 0.024745237558991426 0.011045380872452543 -0.053458667192552684 -0.011782190733919421 -0.0065330954398849 0.02161919062269763 -0.0340697141281063 0.03158200011100797 -0.003639285660548402 0.04541152309892433 -0.08446038088489634 0.02240257110402343 -0.020100714498507193 -0.03992404732742302 0.032072666486436946 -0.004780333356133529 -0.0019459524385941525 0.04617585726304069 -0.011157476102761436 0.0165848573337176 0.03735514263445068 -0.0007324284829554104 0.03309490416168479 0.04303309536494669 -0.011394952384026033 -0.010946904643441528 -0.032293047243174874 -0.023851143029917563 -0.005491476076366823 0.0021539999953737216 0.02858833239103357
60 -0.11704871134965547 0.039398904058283994 0.034345047892115656 -0.1110739039764407 -0.024353047866108164 -0.014402762102517522 0.04308700033496799 -0.06618638054784415 0.05964561831206083 -0.008120666553233085 0.08993961937570323 -0.17380719128552646 0.04023185706561586 -0.049200428472388355 -0.08613800117191636 0.06316547452782591 -0.007738000084091688 -0.005211618978397122 0.08978752421569966 -0.029590714817805702 0.035746333036860006 0.07252395186722944 -0.00011176180781885272 0.0640059509591776 0.08379247499951384 -0.025371952714132413 -0.020041856966383335 -0.06842161787859541 -0.04617361897336585 -0.013107856868633203 -0.0029128571650722905 0.05408485744902421
61 -0.03682761825621128 0.014731714134714344 0.014395047156583695 -0.03276819068317612 -0.008565047389267767 -0.00566123803340209 0.016118190068352436 -0.021208999904393705 0.01828538084823993 -0.002816428647964217 0.02390952337355841 -0.05243061765074907 0.012205095057565597 -0.01548923806625507 -0.02076552399722416 0.015468238439920935 -0.004127333305188499 0.0013605714054955613 0.028153571688259642 -0.007789857204659798 0.008000524029956154 0.020329523925846887 0.0010708571963256137 0.020387190327580487 0.024748095405465437 -0.003346904674323187 -0.0011361903868549103 -0.017936476300487163 -0.012797476427901225 -0.004304047629591965 0.0013885714943171479 0.018684285338081065
62 -0.05302833195310086 0.0220383328186082 0.009013476116316659 -0.049942428998682384 -0.009844143114648995 -0.005509571608854458 0.02170390492149939 -0.031066999984129023 0.029280333469311397 -0.0017751904642431154 0.044307380160760315 -0.07830585681118205 0.01982885676746567 -0.019598381204039988 -0.03774752354227184 0.029013856810273693 -0.004456190536508248 -0.0015034762493866896 0.04340880958452111 -0.011380904645886317 0.014623666919457415 0.03580095216498843 -0.0013551903844234488 0.030837666063841123 0.04116719064214045 -0.011737238088071103 -0.010668904669208652 -0.0320154281881904 -0.021136523994971953 -0.0058802856309782894 0.0013142381046366478 0.027380379959053937
63 -0.053186808163965385 0.02293923758857307 0.009250666569208815 -0.05178652415495543 -0.010472524096257985 -0.0044850477812966956 0.0206660954170816 -0.03230323812403228 0.02855747632150139 -0.0015170476177618617 0.046978380162424095 -0.0789698568613468 0.019084047232311042 -0.021384190744096747 -0.039075333109524636 0.03174128535292333 -0.0034862381483738623 -0.0002598096339386844 0.04238409531258401 -0.010287237933620677 0.016526000208354423 0.034594618858093215 -0.0009322856619421925 0.029705237534861744 0.04282061920856081 -0.01104104762808198 -0.01120242849269527 -0.031179809133477863 -0.022820809692521357 -0.004094761829557163 0.00029042860980899564 0.028338713238814046
64 -0.028848999372539333 0.011346761772680717 0.012930332950851326 -0.02892152400177327 -0.00736161891005135 -0.00353571428318641 0.013248047203801218 -0.018840047472622246 0.01582104754855945 -0.005904047705587887 0.02156266605154434 -0.04617509413704587 0.010335190263590664 -0.010190523711831443 -0.02080861919204749 0.01268542876988206 -0.004309285682947596 -0.0019155713657493748 0.025482047964552685 -0.005366714312306915 0.007111047854691389 0.021136143072951762 0.0006331428552844695 0.01789433316748944 0.019293857452880946 -0.004133761836869997 -0.00022333324748268795 -0.016530190568855255 -0.01363619071309499 -0.006557857120198952 0.0007913333829492331 0.01653219018286715
65 -0.052413712948605064 0.022371523337261306 0.008803190371032716 -0.05082280990193665 -0.010970857487769709 -0.0029080001723265185 0.02071071446213561 -0.032434904762166775 0.028813428683428184 -0.0013176666439643928 0.044955618211090384 -0.07958942835657148 0.019764047243543678 -0.02098504788556879 -0.038487952174840585 0.031705428208667966 -0.0031386190579117588 0.0012226666246230404 0.04289714285239045 -0.009801190363803124 0.01653552401833059 0.03530704739941506 0.0013710477034605685 0.031080237483062472 0.04319257159451289 -0.010423333361229328 -0.011371904706937216 -0.030863666274983968 -0.02219523823476352 -0.0043090474902696555 -0.0005007142400635141 0.027510951367384268
66 -0.10097194996307648 0.03290985634417406 0.03050871440652935 -0.09770709384160693 -0.02335147649448897 -0.011019761998405946 0.03629152418857086 -0.059271714337055095 0.04997871390410832 -0.0074663808904699095 0.07911300002264657 -0.15162647741713695 0.0345742856644349 -0.041390523846660345 -0.07663362026990701 0.054922950564928 -0.00605176200735427 -0.005258809459129614 0.07711052404539216 -0.024665762518582466 0.02856157097266987 0.0614649046786196 0.000651761994785851 0.05237390318818923 0.07254471336325098 -0.02322366689553573 -0.01691723791944761 -0.06013080835483769 -0.04019361925089643 -0.010625142604112625 -0.0018560476102201001 0.04730523809502345
67 -0.09598537985584699 0.03015952332255741 0.027478332872435982 -0.08578633329653669 -0.02386347663317186 -0.010227000285383491 0.03927804690985275 -0.05541628576992523 0.044835666238906835 -0.011871904661391108 0.07314109422094632 -0.1441659551623854 0.031094284961000085 -0.0396895241363035 -0.07055623787233517 0.05289999945532708 -0.007072571556948658 -0.0026693332973601563 0.07026161739070501 -0.027565714305854357 0.02382323792802968 0.06368680983238544 0.005535380936288718 0.050224951900807877 0.06601495149412326 -0.020300190707313873 -0.013288094928222043 -0.05376833329154622 -0.04275976180742007 -0.015340333288934613 0.002131428634692427 0.051081952140001316
68 -0.05149766537249975 0.02219838048109696 0.008188571315258741 -0.05016161939350977 -0.010546809832920275 -0.003603571619827389 0.020813571588535393 -0.028621666657272726 0.02751242872771053 -0.002247476209526039 0.04556342773971015 -0.07494533312967092 0.017785571077616795 -0.020787047880211112 -0.035282333132012615 0.03227395203984564 -0.003802000007237352 -0.00022504766405160938 0.043016095246587484 -0.008119999880797141 0.015010619275493636 0.03590395218703807 0.0007409047934093646 0.028775475601876332 0.04101161919312463 -0.011374619063211694 -0.011637237987348012 -0.03134604724168423 -0.020350047772461993 -0.0038392856035248508 0.000955952431208321 0.029097094244900205
69 -0.054136951038214774 0.02443333290561679 0.010185714234553632 -0.05345614316562811 -0.010893286056151348 -0.002175476372940466 0.02138880969557379 -0.033214952367069644 0.031108000182679722 -0.0021498571150004864 0.04768214203761004 -0.08173242848161386 0.02112776150239543 -0.02316200023432473 -0.039276047404633745 0.03336895202907423 -0.002851857180108449 -0.0006837619501831276 0.044793619109051566 -0.009659809403404194 0.016896285926036182 0.0370983331383849 -0.0002535237332007715 0.03188671373867519 0.04402190496745918 -0.0117016190529934 -0.010124571355325835 -0.032811190034928064 -0.02383838110281864 -0.004963904641391266 0.0005925714725717192 0.029405903808462124
70 -0.10330661657887201 0.032905665869336756 0.029804285848513246 -0.09876976052847956 -0.02174700032697902 -0.011627238191154209 0.03695423847585473 -0.060062238167856344 0.05074785671950806 -0.00543885705355067 0.08011204758769877 -0.1554793821248625 0.03557423805371703 -0.04442700007486911 -0.07916304887649381 0.05557485530152917 -0.005571142961603722 -0.003961571353665065 0.0809667621561814 -0.025725762543429266 0.029982666243865554 0.06359899991297252 0.0005766191309140552 0.054664665062557016 0.07466937999873023 -0.0224475716684191 -0.01854476173736787 -0.06212999886442309 -0.038955381129025704 -0.011805571172209013 -0.0030932857244763347 0.047275952340680216
71 -0.11684618753913258 0.03957599929223458 0.03395861931633027 -0.11009733252909168 -0.024526238319508377 -0.013980762115568809 0.043720286048483104 -0.06482476148760595 0.05823557074403479 -0.008281714201161992 0.09026404793396414 -0.17103338172836674 0.03900466661365326 -0.04821038083727693 -0.08514562020233522 0.06281699832262737 -0.007905809596801797 -0.005472047548253266 0.08911157184324804 -0.02898923860422136 0.03483323779212134 0.07209918996557549 0.0002535715244621748 0.06231876050809487 0.08271161786424705 -0.026205524136977538 -0.02012557124648343 -0.06770504644858495 -0.04534423803644521 -0.012497142600339083 -0.0017162857166979286 0.054847000316450636
72 -0.05470699876258593 0.022869666095911748 0.01021704754038226 -0.051714524325992293 -0.011211952664953492 -0.005651762092297542 0.020697095392582316 -0.03320333320880309 0.03180842866588916 -0.0024091904134755687 0.04399580879890848 -0.08242733315204359 0.022282952032539816 -0.020870666899316433 -0.038866237842566556 0.0306488093116232 -0.004912809549187798 -0.0012416667055471667 0.04491142863185987 -0.0116129523133471 0.01668152400469851 0.03739576169200951 -0.0006806189526936837 0.03256928503660241 0.041888285893946886 -0.01099666667488193 -0.010483333221816878 -0.031280380560063006 -0.02235900017521566 -0.006297142724395685 0.0009554761844421071 0.027627713329690908
73 -0.05380337960862865 0.02195138047404942 0.008804047524574258 -0.05187523848421517 -0.0097320003135662 -0.003655857327560495 0.022102428744325324 -0.03157123811598424 0.028908714385969297 -0.0008729523535640467 0.045898332501695095 -0.08064076162935678 0.019785999625344716 -0.023614047913898026 -0.039661237897927915 0.03161480915289195 -0.002814904783874573 0.00014909517042161453 0.044047000064026745 -0.010148428453248926 0.017521762139430002 0.036827333125984296 -0.0001306189889354365 0.031708142236484924 0.0440006191908781 -0.010348523822834804 -0.011088047553563402 -0.03247909486249444 -0.022678000140114733 -0.005238285587568369 -0.0002456666247564412 0.028684760837460913
74 -0.05542495098918499 0.021977428080780164 0.010021476097227562 -0.05284776241335619 -0.011252619297573844 -0.00481866687464173 0.023175523998881026 -0.0311208571268556 0.03206766685027452 -0.0017026190152613534 0.04570557072847372 -0.08083104732352131 0.020818761527715696 -0.020736000199533356 -0.03854004729960468 0.030336523459049032 -0.00405557150952518 -0.0004763333542671587 0.04551523806349862 -0.011581476116026309 0.01516157169715457 0.03863276165377881 -0.0006429046680707307 0.03280471360457817 0.04357100024242841 -0.011558857141131912 -0.01125547605451651 -0.032974856791995646 -0.02256747637875378 -0.00435971419903494 0.002089285749077265 0.028341951358708598
75 -0.10207028328884571 0.03261152301205411 0.030446476336302503 -0.09793752242694609 -0.0220580003335185 -0.011303000099446979 0.03663571465793731 -0.05890228576875719 0.05061552338745622 -0.005830523714567313 0.07862661901440117 -0.15443890601662652 0.03548038091685157 -0.04405852389477548 -0.07773033458007765 0.055294188643096105 -0.0065597144005421016 -0.00429980941892912 0.0788323335305211 -0.025924238737345496 0.028668713825200462 0.06318971418659203 0.0007798572436773352 0.05499080790849846 0.07331271335715428 -0.023166905002047617 -0.01802280935122066 -0.06085099884893723 -0.038312047808652834 -0.011602237820625305 -0.003972523818014278 0.046149380959659106
76 -0.05372966544902218 0.023367428010152208 0.010525809445728859 -0.052652571871433226 -0.011153095551500363 -0.004072857337416194 0.02129657159648126 -0.03222314276388802 0.029646762025852997 -0.0017951904529971735 0.046560046825713165 -0.08157504745066121 0.021062999658863105 -0.023267762157220637 -0.040103666456637994 0.03379138065723791 -0.003517095240697797 0.00023261901722954853 0.04452271435764574 -0.011202428473985665 0.017902857324640666 0.03771909506897265 -3.461898969752448e-05 0.031177808867401575 0.043121333489017116 -0.010894190497873794 -0.011592904660141184 -0.032055666259977786 -0.02241638108500324 -0.005485428441759376 -0.00023547615412445295 0.02839866566050443
77 -0.052157522472996445 0.02276647570986478 0.008610380831496081 -0.050489952730242205 -0.011885762220204231 -0.003400047779515652 0.020309095416450873 -0.0319927142894206 0.028473809666355095 -0.0021826190474842277 0.0457682849124207 -0.07730233309917994 0.019259761536626945 -0.019534143107496977 -0.03798342834869843 0.03189004725399649 -0.003426285728069377 0.000964857066892797 0.041338857157998496 -0.008951809382692556 0.016109381142693262 0.034155523602662254 0.0008600476929651839 0.029507475621011553 0.042768238278638036 -0.010592714306161119 -0.011009666603058577 -0.029692237697807804 -0.022884476367228974 -0.0032004284605916056 0.0006980476790063438 0.027967094233082163
78 -0.05445080828697731 0.02326461846851522 0.010024238000845625 -0.05138166715429785 -0.012126857397388016 -0.006143809699486675 0.020295476346897583 -0.03276114273605691 0.03146880964881608 -0.0032741428169954035 0.044808475500238795 -0.08014023789465205 0.02177866632562308 -0.019419762121244622 -0.0383617140164244 0.030833428356951725 -0.005200476219345417 -0.00149947626327741 0.04335314293746792 -0.01076357133223653 0.01625538112906118 0.03624423789525671 -0.0011916189631890682 0.030996523174551493 0.04146395257807204 -0.011166047619813721 -0.010121095117938239 -0.03010895198288684 -0.023048238307681112 -0.005188523694717635 0.002154238103511965 0.028083856195388807
79 -0.05563709386513524 0.02266047571209215 0.010065047513870965 -0.05404814329397466 -0.011139286000148527 -0.002880095452946123 0.02317261925366308 -0.03143766667926684 0.030274381151511556 -0.0007405714131891727 0.0478883325870681 -0.08100833307391786 0.019351047247515192 -0.0229826668825505 -0.039379999723418484 0.03253085675117161 -0.002965761963943286 0.0007647142490549456 0.045372857113501856 -0.010735714171286895 0.01657695261695023 0.03815319024198245 0.0006563333971869378 0.03155785648656698 0.04456790498945685 -0.011526857159056124 -0.012234952261981865 -0.03259409488444882 -0.02273314300691709 -0.003072095158997746 0.001063285783554117 0.029606284640197243
80 -0.05479090344271667 0.023214570967303144 0.010555047541856766 -0.05272171464526937 -0.011669714596965128 -0.004042952591719638 0.022637714432286366 -0.0320260951966269 0.0295628572459377 -0.0029524761595807617 0.04578357059896613 -0.08133542848545836 0.020289856790831045 -0.021701047882656678 -0.03893609499625329 0.0329861425312369 -0.0033556667040102184 -2.571486956661656e-06 0.04429452387349946 -0.01084909511111965 0.01663576211735961 0.0362684759741006 -0.0006985237400624014 0.03227652327041142 0.04340657154707948 -0.01220290478141535 -0.011725761827879719 -0.03144980914935115 -0.022955666806194045 -0.003733714177672352 -0.00022719043218308972 0.027723856159441528
81 -0.05588918909363981 0.024419856679049275 0.010271809440815733 -0.05386352419321026 -0.010127857432789392 -0.0048743335216949206 0.021989809692881647 -0.03361180951608168 0.02867066678369329 -0.0018821904613148597 0.047581427761109636 -0.08328999985159109 0.019707952010711387 -0.022065143121359314 -0.04063766642052326 0.032980523482408555 -0.0030660952851619748 -0.0007062858092554268 0.04520680963815678 -0.010681142704145583 0.016855476413010842 0.035705523597287195 -0.00047309518170853454 0.03180361852199504 0.04438976199543547 -0.011269952392294294 -0.012028238018198559 -0.033363904393765895 -0.02362371441475781 -0.004397714211206351 0.00029019050167075226 0.02884318943445881
82 -0.10375818797564577 0.03388252313293162 0.030774857239088134 -0.09858790391895343 -0.02237042876714397 -0.013447285809975472 0.03783923855129009 -0.05832914271619908 0.05139923765368405 -0.007071714212153373 0.08048047625925392 -0.15330938161129043 0.034490571428683496 -0.04325971424224831 -0.07782857259181106 0.056750093608917224 -0.006500381033956295 -0.003928333282515052 0.07959766692614981 -0.025732810102497405 0.030961999561571116 0.06325542842941581 -0.0005239523071352215 0.054356855501066004 0.07449242760083594 -0.02217580976762942 -0.018084714185360576 -0.060353141784573724 -0.03985652406256469 -0.011591809269573008 -0.001281571435919475 0.04881242850595819
83 -0.05194537959704619 0.0220834280785528 0.008566809414852676 -0.04928957184962374 -0.01199909551762955 -0.005338619201211259 0.020312000161668817 -0.031675904737009354 0.030267095365118058 -0.003144666649556408 0.04358552305382632 -0.0771250473487834 0.020727475816827445 -0.017287476424479836 -0.037143475924884636 0.029695713961873912 -0.004516095273651271 -0.0002761905364293073 0.04148123810799526 -0.00979757132743197 0.0146940002228976 0.03463509501445861 -0.00043919037229248455 0.030754332739022738 0.041771333531609604 -0.010624714288236905 -0.010030190395593223 -0.03007299960535463 -0.022718809739065666 -0.004488047500628801 0.0017240476445294917 0.026702760951593518
84 -0.10367433089275091 0.03439047543465027 0.03152985727813627 -0.09978409387986176 -0.023006809831020377 -0.011409047738804171 0.037615238464370905 -0.06058028572910449 0.05009190436630022 -0.007831523734022908 0.07971604762133211 -0.15594662040738122 0.035198190442835245 -0.04207147622392291 -0.07819595358090564 0.056162188694413216 -0.005631619144142384 -0.005705285634446357 0.07993323837096493 -0.025059667289107374 0.02889104717732629 0.06257580941781357 0.0011109524750195089 0.05447228417532252 0.07411385615012564 -0.023452571659748043 -0.0177430474449509 -0.06231490361512572 -0.04099652397313288 -0.010928094985761813 -0.0018562857183583436 0.047809714290668215
85 -0.05170966536804501 0.021363713789642566 0.010187380869562427 -0.052103809923643156 -0.01109223842199537 -0.0031136668639235375 0.02173452397497992 -0.03133261903643697 0.028052666801072303 -0.0027672380563758666 0.04431695157074414 -0.07963809502238985 0.020037999603941682 -0.021260428839360385 -0.03762690454078395 0.03143585680629171 -0.003132095258306002 7.533326944602387e-05 0.04246766669010477 -0.010849714174539605 0.01646071450696105 0.03570599979138933 -0.0001628094663222631 0.0301829041466893 0.04173423825497074 -0.010524333365971134 -0.010847999913884061 -0.03067985673745473 -0.023362857253578978 -0.005467999892841492 -0.0007092380297503301 0.028217903731967368
86 -0.10122814043868511 0.032514903971570586 0.030701523946065987 -0.09803995101330136 -0.02243657176205445 -0.010527714391216813 0.03669314323425559 -0.05971390480980127 0.05031833292118141 -0.006601428486950074 0.07830033332131625 -0.1539135726745285 0.03507857137135163 -0.042841428624732156 -0.07713814409604917 0.05473833151959947 -0.005764095337196652 -0.005000999901399371 0.07866880973978412 -0.025515143499693034 0.028987713848307197 0.06261642847537241 0.0011627620052812354 0.05394666505024014 0.07296904667912583 -0.02305428595060394 -0.017279476023326253 -0.06130223693201385 -0.03950438111843098 -0.011733761633790675 -0.003054809529289958 0.04684909522932555
87 -0.05234471298865087 0.021338999504223466 0.009726714209786482 -0.05097757177870898 -0.0110994765279992 -0.0031616192441322796 0.021715619202171053 -0.03115971427732369 0.029789285800818886 -0.0017223809125079285 0.04436785629895028 -0.07930238075260561 0.020170237719347433 -0.02247100028346592 -0.037878285511396825 0.03156228535642315 -0.003488142897064487 0.0007017142460903241 0.043030095242318656 -0.011304571321705311 0.01673242878834052 0.03630909503165943 -0.0006467142098006748 0.03175090414532904 0.042261762076079665 -0.011804619072271245 -0.01126219040625507 -0.030437142466239277 -0.02146352395149214 -0.004539380825701214 -0.0014257142431147042 0.026763237098098865
88 -0.13342071456385643 0.04784790331142999 0.044746808903818464 -0.12996747491082974 -0.03222347617459794 -0.005483381001145712 0.06091314362683555 -0.07875652273096853 0.06250604768727153 -0.009468476177148875 0.10109433156252462 -0.2073135694621929 0.039376428517113836 -0.049338191446579346 -0.10112557084565717 0.07359095098495129 -0.007900809619708784 -0.014930761463585355 0.1159335709775665 -0.032286238124860187 0.030280809670719982 0.09189890377317733 0.010368095211950796 0.07195647565891877 0.10286390285251573 -0.03746381029486656 -0.022231142951308618 -0.07798633319492053 -0.05424204772238487 -0.026092190262196318 0.003130714335600801 0.06488476074965936
89 -0.1018677594783228 0.032788618246004694 0.030060047760517114 -0.09696095097959707 -0.022231190786918716 -0.010881000112498268 0.03726900037145242 -0.057540666708518984 0.04920547581943018 -0.005991571362496221 0.07895104757266208 -0.1516650964594668 0.03425319046488896 -0.043068476259664056 -0.07673795361049651 0.054945712437897566 -0.006727523913252212 -0.004560237988785264 0.07815638115806949 -0.02532276252376115 0.02775561858046179 0.06276495228493809 0.0011451905759583627 0.05330361745741573 0.0722318562218875 -0.024000476424892742 -0.018106523631320755 -0.06013442741892677 -0.03748266687173219 -0.010991523552331187 -0.0027759523696399163 0.046911523827085536
90 -0.052170617755369415 0.02208490426363867 0.009469237976840563 -0.049881047946179195 -0.011736095555880595 -0.0027098096948715727 0.021888762080509747 -0.030197999986176866 0.029902333438041665 -0.001980619039386511 0.04472057060948351 -0.07618190452783546 0.020106999619331743 -0.02019247644230269 -0.03756633311665306 0.03196414249361537 -0.0035324285910021337 0.0005623332413268231 0.04136061907878944 -0.010296047491248742 0.017654143085348465 0.03512485694955103 -0.0013735237686584394 0.0293490946711418 0.042615666827519556 -0.011599809546688837 -0.011406428502163007 -0.02903685675534819 -0.022130238269233986 -0.003579714158106418 0.0002780476740250985 0.02757614186321873
91 -0.05133857010930244 0.02205818997962134 0.009643999892952186 -0.05037738132246193 -0.00988776221804853 -0.002825333546969064 0.021187762053506004 -0.030616238084067368 0.027741285883599802 -0.0007368571657155241 0.0454144753776269 -0.07592842836969621 0.018142285363172136 -0.02170619070689316 -0.0368844759816836 0.030628142495905713 -0.002759333339608496 0.0007042856720675315 0.04200680950833928 -0.009126333193437728 0.015809190695151864 0.03551957125282137 0.0008826191160118296 0.029710618461692883 0.04212404779502235 -0.011770619057296287 -0.011274666575315808 -0.03163157105224118 -0.021341857286946226 -0.0029448570484029396 0.0020974762848622744 0.0274048085501861
92 -0.06845633191655257 0.02889076132504713 0.014891333279332944 -0.06699428658577658 -0.014905428974002245 -0.005947143131855964 0.028480047792462364 -0.03990342875199747 0.036810809649371855 -0.003030095249414444 0.05839666570924843 -0.10190571417028661 0.025426618638448417 -0.026956047971907537 -0.04966295232796775 0.040474332860737504 -0.0038288095134443472 -0.0023075715095425644 0.055308952739107464 -0.014375285406935117 0.020975190658299697 0.044629142429801594 0.0009484762614149423 0.03990661852211425 0.053740285747196706 -0.013977380824230966 -0.013453714128228881 -0.04025614220604655 -0.030182809665954363 -0.0037829523041312185 0.00196009529532776 0.03680876099194089
93 -0.052088522513042246 0.02173395187682694 0.009533904670249848 -0.05064471460701454 -0.012014381260433723 -0.0036536668513214125 0.021314000156486317 -0.030717523804577512 0.0294496667837458 -0.0025873333160277632 0.045180523000280595 -0.07701528549521408 0.0196659520124307 -0.021020095505394108 -0.03737376168525467 0.03174690440175168 -0.0037758095672221054 0.0004439046883600808 0.041471809547926695 -0.010455190340594743 0.01630628591270319 0.03515757123490663 -0.0011577142202960594 0.030178142283278118 0.04183742876020482 -0.011974000017203036 -0.010899952302376429 -0.029265713889063114 -0.022152762083957594 -0.0034307617960231645 -0.00022695232404484634 0.027219379963796763
94 -0.029460284894975347 0.01086290458971191 0.007517618783735781 -0.029964285697566255 -0.003962476022674569 -0.0073095713825231156 0.012649142457770981 -0.01630142862198963 0.014943761634640396 -0.00023923818502052675 0.023397618339263966 -0.04477266564277843 0.011357190414509248 -0.00957980941581939 -0.023914714449173993 0.016918904727347018 -0.004816666608565443 -0.004359428606611411 0.021569429054146723 -0.00839190479988853 0.007606809640059336 0.01776661918293463 0.004003476151237486 0.017261285393033177 0.023634904898547877 -0.004593095121284326 -0.005523952397717429 -0.019769047771530626 -0.015987190747788798 -0.007340285694226623 0.0025728571428252117 0.016903237910896894
95 -0.11949490180372127 0.04127447552136367 0.03517338122418594 -0.11281804684300109 -0.02492328593507409 -0.01528409545010488 0.044009095565083305 -0.06705276146714736 0.05941918975717965 -0.009350761800305918 0.09135533367571909 -0.17584023901837922 0.040351476137099475 -0.04843047607157912 -0.08719581065677284 0.06458933170263965 -0.007605523891037419 -0.005915904711444108 0.09105195284688047 -0.029135238607220042 0.0356496663658791 0.0724833328096706 -0.00016357133808057932 0.06453157008425998 0.08493728447051364 -0.025770238423276515 -0.020505428388007983 -0.06943428456170728 -0.047665761828067754 -0.01230219022060434 -0.0017143333541406762 0.05504547651036687
96 -0.03128480872726955 0.011023428390866943 0.006791618846667309 -0.03207657141943595 -0.00391528555302925 -0.005509761801000596 0.013515999579491714 -0.01742552383941421 0.015560618823482877 -0.0003343810404181741 0.024555189729047317 -0.04397847510630354 0.0112417142538886 -0.01212814281184581 -0.02228061924099512 0.017585238056545632 -0.0025024285215684877 -0.002478238130736697 0.022378095725019063 -0.008411619038919784 0.008072619153175592 0.01756680963998882 0.004172714249718757 0.01748585680754678 0.02392638110212006 -0.004455809419423098 -0.00432000002945729 -0.01837028590394073 -0.018660476442337745 -0.007423809565980697 0.003509428571089215 0.01594190463046765
97 -0.05360085579810575 0.022128475708000007 0.00841761894878887 -0.05089866703686615 -0.009905190766966413 -0.0032338573406117837 0.022735714457840436 -0.030209619055746033 0.027498666817943256 -0.0010340000014929544 0.04622276105995601 -0.07786695207219704 0.01855880917338211 -0.0226240002787866 -0.03866885692834677 0.03126633294769341 -0.0029827142965846826 -0.0001113333994345296 0.04337104769157512 -0.009546952239664582 0.016608666894691333 0.03640257122433035 0.000234714343345591 0.030020951785402195 0.04291976205561133 -0.011182095245679929 -0.011171761833663498 -0.03176252343248399 -0.02184861920319409 -0.00462757131927425 0.000950904823617921 0.029446903704887346
98 -0.10147037852688559 0.03289385635538825 0.029510333435609937 -0.09715342716472583 -0.02326866697209577 -0.011663523893470742 0.03680447655053632 -0.059159809587851796 0.049526761507704145 -0.006877857067766378 0.08002128571249723 -0.15158433456062562 0.03544766662595239 -0.04217380957145776 -0.07793428692855828 0.05526737912025835 -0.006457190572594603 -0.0055538094768832836 0.07843733354959459 -0.02364704822580929 0.028737380493631854 0.062030190395446314 0.000513714369541655 0.05295085557182098 0.073673856214598 -0.02291414309487057 -0.01814814266323256 -0.059623617874985074 -0.03922723830189733 -0.010199333078205763 -0.002319619042931923 0.04662661905777419
99 -0.03771623729040757 0.014223856994205909 0.013721475693663316 -0.032154190692208 -0.008976999813707412 -0.004808952326476131 0.016386332910596615 -0.020629952255625368 0.018536095158196986 -0.002650047692614386 0.02530533288206373 -0.05244437957160352 0.011816333169484832 -0.013590618986026606 -0.019544095438461574 0.01579152416559823 -0.004969523785846485 0.0014572380432149484 0.0278985241006705 -0.009175476248076717 0.008379047827994717 0.02104233342245044 0.002501571466425611 0.02119876178247588 0.023557143025321976 -0.002575999929658359 -0.0008099522688315206 -0.018461809642585217 -0.013883762142670873 -0.0055210952358763846 0.0022845238539351462 0.019240142500382803
100 -0.053880760562606156 0.02482828527822026 0.009992904695016997 -0.05312328599393368 -0.01180819078858587 -0.0026675239801295988 0.020987190649889055 -0.03277276189432347 0.030768381165606633 -0.003014809518520321 0.048494808738940354 -0.07944533322422233 0.020623475795478692 -0.021711095456252917 -0.0387715235784916 0.03355357107440276 -0.0031395238502660676 -0.000941571507913371 0.04323533341465961 -0.008810428422293626 0.016470143050398855 0.035946809341632094 -0.000764523743696156 0.030313951876624265 0.04359757165158434 -0.01187099999792519 -0.009762333251447194 -0.0316397614577519 -0.024527619235284095 -0.0038552856117132165 0.001791333391641577 0.02986204667416002
101 -0.05251885665521037 0.01806852371165795 0.017265761636995842 -0.04568028570862398 -0.013512285381910346 -0.007430714172317364 0.022385523277556614 -0.02738847613883471 0.021786285741698174 -0.005137523869052529 0.03735823741936613 -0.07533061708229416 0.013267285619284459 -0.01745014280285908 -0.03569157139420332 0.0219145239011379 -0.004615238079124884 -0.0032267619778091707 0.04099495323663134 -0.014404238286217497 0.014679333458410665 0.031839857526522665 0.003118714323222992 0.025799190559025322 0.03806390493298836 -0.009956571234700581 -0.002847714260930107 -0.026740524312897054 -0.01928600026405461 -0.011316095259861044 4.6714298064000016e-05 0.024988237651996315
102 -0.054146379637088446 0.023896856710226053 0.00940333322311441 -0.05288233370741918 -0.010943857448485991 -0.004906904954363459 0.021102381105135595 -0.03084966663681414 0.028696047740855386 -0.003316523808669964 0.04665471348146509 -0.07975219041968341 0.019132380601063016 -0.021007143114513297 -0.037332523586450235 0.03404628541985793 -0.0035017143014729733 -0.0006689048272424511 0.04495647625021991 -0.008265999883795823 0.015827047849251402 0.036288095031133186 0.00032376193086661046 0.03098828517804144 0.04323728579939121 -0.010939333349510673 -0.012017095128872566 -0.033075285354806555 -0.02267157156408454 -0.0036443332237901076 0.0009579047937655733 0.029295570438816435
103 -0.054290808188462894 0.02445233288398456 0.010916523735171981 -0.05354452420336505 -0.011856428885255895 -0.004186143060602869 0.022299190661648198 -0.032068142836492154 0.02883304774461846 -0.0016689523611040343 0.0466588563313486 -0.08196776181076919 0.020145713933743536 -0.02133176216150224 -0.039390142602358194 0.03304347585764758 -0.002968714300853511 -0.0006387143650846113 0.044589238141530325 -0.010964095088725333 0.016850285919471866 0.03576157121070927 0.000631619111767837 0.03245899948662901 0.043593904857213296 -0.011157857143275794 -0.011794142768762651 -0.03277523774609324 -0.023588714419886293 -0.0025319999106050957 0.0016971429299917958 0.028741760911153897
104 -0.1052242356152939 0.03506899936612518 0.03243819059848431 -0.09983266585567478 -0.022336762110214858 -0.013512333458666467 0.03884442900917271 -0.05847776170914932 0.05138009478382412 -0.007828523716723015 0.07959809528464186 -0.15658904849329874 0.03502061907021839 -0.04357219043941725 -0.07795819160639353 0.05770866507996938 -0.0070688096096827874 -0.004713047523095849 0.08028595262606229 -0.026325191066938543 0.029977523347562447 0.06395704744222928 0.00013847628586171639 0.05678137933414075 0.07470490374613464 -0.02312404786547025 -0.018388571324716656 -0.061258237029375905 -0.04001609546442827 -0.011691428299638488 -0.002161047637595662 0.04819033332058184
105 -0.05495657011800047 0.02450209479069426 0.009529047534756717 -0.05294552418802466 -0.010765857456828513 -0.00373195256300581 0.022309238257418786 -0.032110333301326524 0.02781609536725141 -0.0028740476284708294 0.04689666586429147 -0.08053619040237252 0.01961266632965167 -0.021111047847149338 -0.038613523550642036 0.03392490444128357 -0.003707333384746952 0.00035490468698775484 0.044570619107357094 -0.009026761771695289 0.01586557163058647 0.03564938076721903 0.00027509527059183236 0.0312621899301164 0.04445000012804355 -0.011566428584046662 -0.01228666655896675 -0.03306871392054572 -0.023818904874912863 -0.0040737617916117115 -9.061900588373344e-05 0.0292207132581444
106 -0.036832618327545266 0.010362190325395204 0.01182285674128382 -0.03210980967352433 -0.009337047436496331 -0.00444876192211398 0.016378285307880668 -0.019638523729684363 0.016316952344606676 -0.0032486667346564076 0.027757904248400814 -0.05157147484160738 0.011964523651147915 -0.013137571398623376 -0.02486866684297898 0.015850905048691424 -0.005312190439629679 -0.0017424285622491013 0.03216747644667824 -0.009845904845167838 0.009677904982319368 0.022531714373534278 0.00025623810056242205 0.01939814268899638 0.028959619216731795 -0.0017395237782260491 -0.00032866660815974075 -0.01919076204164109 -0.01292319068618651 -0.006986333303973966 0.0017070476179859334 0.01802395204902582
107 -0.10172656900249422 0.03249890398278478 0.029703142975146573 -0.09748628433642027 -0.022353762239661245 -0.01117147628628161 0.03720609559622105 -0.05960200006059798 0.04986638052477723 -0.006012904664246543 0.07920861901116691 -0.15387142981801713 0.03595195233286913 -0.043624714349529574 -0.07843881075470042 0.05508276007492982 -0.006169523902436984 -0.00529599991915304 0.07999561924398654 -0.024496429206919856 0.029163523369269178 0.06318171419219912 0.0010247143800370395 0.05452361743387189 0.07409818953047284 -0.022744762149938782 -0.0185103807671112 -0.06079504645216124 -0.03853800016943188 -0.011307952107883813 -0.0035183809620017805 0.046170476192076294
108 -0.10305042610326338 0.03330061824194023 0.02961147630897661 -0.09843690335678514 -0.02266190505941354 -0.012119285798343342 0.03655261943017 -0.059620047695110166 0.05040823770243497 -0.006303809457070504 0.08092471428902909 -0.15319228686747097 0.03506995234680029 -0.0429760952967973 -0.07865852505035166 0.0557594743468577 -0.005858809631761341 -0.004219380911395308 0.07940847646178943 -0.024876381562318698 0.029556523368228227 0.062447476116219716 6.561912041867064e-05 0.0530919032005061 0.07424504668285538 -0.02261695261335089 -0.01818252363348923 -0.060958570287246924 -0.039644619261491154 -0.010696952142530964 -0.0018945238054064767 0.04773209520637812
109 -0.058073665253773686 0.02367590430990926 0.011236238005083232 -0.0555684767272656 -0.011649666913139558 -0.0061220002091778 0.023464333515481224 -0.03334885710639702 0.033251285863419376 -0.0027716666144052787 0.04679685647022866 -0.08563790461353381 0.022165571051161913 -0.020956095433835538 -0.0405902377540423 0.03210885683906132 -0.003755285803760801 -0.0009201905174580004 0.047455619067131055 -0.01172747611902499 0.015978000270912333 0.03901690449787393 -0.0010600475306134847 0.03501752318074328 0.045796666848694996 -0.011123571427430892 -0.011635333196041063 -0.03470409490511797 -0.02488900017037633 -0.0041647618193001975 0.002091238111634517 0.028540427552624828
110 -0.05344299863957401 0.022544285215969597 0.00944347610874545 -0.05211938132664987 -0.009557619363823463 -0.003993000174107563 0.021067714462766333 -0.03274542859677846 0.02889709533857448 -0.0006520952142420269 0.046165713461093785 -0.08125695211873833 0.019588332939227775 -0.022835095522168558 -0.039579856935666784 0.03155666630759481 -0.003198571478216244 -2.0000762084410304e-06 0.04394238100697597 -0.011136618914731247 0.01695214308399175 0.035746142654846026 -0.00042128565144680793 0.03127799939691266 0.043244952524435665 -0.01087166668315019 -0.011564666596573911 -0.03235123771065403 -0.022131571560055904 -0.005203380859235213 -0.0009083333092608622 0.02788257037311615
111 -0.10181409281323708 0.033006475384657584 0.030253666796765867 -0.09760466525525165 -0.022972905065953023 -0.011795047706636112 0.036234095612252576 -0.058460095296011004 0.05027590437038314 -0.006695476118087147 0.07943928571573149 -0.152151810759235 0.03497609520993484 -0.04260761911670367 -0.0772258107539355 0.05547880768842463 -0.00684738107069972 -0.004557618976659363 0.07727404783612915 -0.025074857756234928 0.028242570949563135 0.06203819038983922 0.0002688572331819506 0.053418046046447544 0.07288838004127943 -0.02333628594697941 -0.017660571247342022 -0.059679570271761066 -0.039001285941118284 -0.010493618790947255 -0.0027737618989444207 0.046605523825357
112 -0.0541452850711288 0.018979761985801383 0.015904571108833244 -0.04833304750389375 -0.013208952455204866 -0.009430476252288957 0.020723095093715182 -0.030542047594952323 0.0233574763018017 -0.006581523832643316 0.03816314229680713 -0.08322228511263217 0.016476237689078386 -0.017773523871299057 -0.03561676163337238 0.02443338133439067 -0.00598571423463346 -0.004313285651040219 0.0411021436863978 -0.011850523881592034 0.012224905065349526 0.03050095235258119 -0.0009777142418204762 0.03175499956012659 0.041458191020259015 -0.012307237837896017 -0.002766618974939255 -0.032527953050226814 -0.02293009518013735 -0.012748476108148074 0.0002879048233375042 0.030504380519102727
113 -0.1027780451612281 0.033193427903045504 0.03160985726641402 -0.09808852298911439 -0.02176652404124893 -0.01263100011107911 0.0379223337790574 -0.0576113807898461 0.0516065233387053 -0.0065984284696501815 0.078182380984626 -0.15455600076044598 0.03490099999873478 -0.044342142840226494 -0.07690038212153706 0.05628480790515563 -0.007201285802737056 -0.004008761790048864 0.07902152399488148 -0.026780667277524203 0.03007419001854335 0.06399766649978812 0.000190285816123443 0.05625576020905837 0.07356009427513484 -0.022725762156326147 -0.017924999903092004 -0.06024557034626404 -0.03852395260972636 -0.01249709494766735 -0.0033595714485272765 0.04722971425923918
114 -0.04847576133103021 0.0165525715322777 0.014451094816086836 -0.04291828563492302 -0.01248795240895734 -0.007949285795413224 0.01801819035747377 -0.02639699983451681 0.020044714395355965 -0.005777000033828829 0.032317999291643945 -0.07347190400053348 0.014864047285213712 -0.015676999985728236 -0.030665190341616317 0.020381190780816332 -0.004297285656710821 -0.0037911427539906333 0.036523905532833724 -0.008588857291865029 0.00993695274727153 0.02764380955930045 -0.0014950476116999717 0.029216047293240472 0.03575466713213939 -0.01034299980910007 -0.0016367142573775102 -0.028590952896463153 -0.019542857214608893 -0.01139076181737307 0.0005775714893215557 0.02607814241422429
115 -0.05455057015309909 0.02405076142444852 0.008999999878661973 -0.052615952675945925 -0.01236933363889832 -0.0022737620927814747 0.02068747636596007 -0.032598190511288566 0.029579714450630405 -0.0024386666593186205 0.04659161819533134 -0.07988747586135841 0.019917618677330513 -0.021460238332413912 -0.03931152365458686 0.03233742822582523 -0.002489428613833817 0.0008592856216377445 0.042286238089824714 -0.009113999857661492 0.01737047634863605 0.0355118569527154 0.0008076191103706757 0.031030618517737214 0.04411442882736169 -0.011753190486204056 -0.011077952310664668 -0.031422142504847476 -0.023188571614723298 -0.002856666554829904 0.001165381000776376 0.029583665664263424
116 -0.053230855763623755 0.021861237584657613 0.009399904692102046 -0.050919000446031405 -0.00967095266124878 -0.005931571595803169 0.02107061920798428 -0.032428619044367224 0.030690381037337438 -0.0016141428163142077 0.0439829516024994 -0.08107966636834178 0.02105604721942828 -0.020588428839151414 -0.03873990451185299 0.02936233301547223 -0.004288381023798138 -0.0012430476795305453 0.04408476195697274 -0.01198238085947066 0.015536762164196088 0.03622571406664238 -0.0017205237167044764 0.03252485651492385 0.042248047777407226 -0.010903666665225978 -0.010585190389108556 -0.03273199961820085 -0.021965904931892596 -0.006490999899272408 0.00011766665626228565 0.026618237091627504
117 -0.1040143784512544 0.03348757076032814 0.030967666778624767 -0.09892076109064787 -0.021455524034709447 -0.012955238202786339 0.03824085759697482 -0.058771333188945264 0.05173885667075714 -0.0062067618086335385 0.0796678095579236 -0.15559647686868197 0.03499485713560023 -0.04471061902032012 -0.07833309641795322 0.0565654745635887 -0.006212714363798676 -0.0036705237247848083 0.08115595262054176 -0.026582191083607973 0.031388142437208444 0.06440695222616862 -1.295229663983697e-05 0.055929617363116926 0.07491676091671079 -0.022006428822697627 -0.018446952289239215 -0.06152457036174989 -0.03916728593009923 -0.012700428299251058 -0.002480333354989333 0.048356285640260295
118 -0.10417275945656002 0.03437447544586446 0.030531476307216854 -0.09923042720298067 -0.022924000308627172 -0.012052809633868969 0.03812819082633637 -0.06046838097990119 0.04963995196989605 -0.007242999911319376 0.08062433331118275 -0.1559044775508699 0.03607157140435274 -0.04285476194872033 -0.0794966202395569 0.05650661724974357 -0.006037047709382716 -0.006000285652200026 0.08126004787516736 -0.024040952996334193 0.029066856698288273 0.0631410951346403 0.000972904849775313 0.05504923655895427 0.07524299900147266 -0.023143047859082885 -0.01897395218873585 -0.061807713135273105 -0.04003014302413378 -0.010502285459854951 -0.002319857151070166 0.04713109525341895
119 -0.05624957006269445 0.0238269519371291 0.00963238085664454 -0.05361938135077556 -0.010302238382532128 -0.004537190675147853 0.023024523974440637 -0.03243761903528745 0.02868228583108811 -0.0021030476006368795 0.047314046801710946 -0.08267380936220954 0.019905618696828328 -0.022844095513088785 -0.04071904738278439 0.0330386663277057 -0.002682428590820304 -0.0005551905626253713 0.04531142869520755 -0.009692952242663264 0.017425095468449097 0.036786714068425465 -0.00018242851919716312 0.032233761361567304 0.04514542866187791 -0.010746809531978908 -0.011551618975188051 -0.03349176154560631 -0.024170142994816637 -0.004432618939539506 0.0009528571861751732 0.029645379898803576
120 -0.10152404519197132 0.03267599921673536 0.029316714399361184 -0.09650971288907126 -0.02252695269306146 -0.010749476299332898 0.037839381309736166 -0.058240381000359775 0.04845633295675119 -0.00617395231217545 0.07953304756942782 -0.1510976202608574 0.03472476188090652 -0.042634666714418144 -0.07744642978511929 0.05473428386973128 -0.006337333415147094 -0.005556428489009184 0.07931966687153492 -0.02389495299333551 0.02825042812453051 0.06275695229054518 0.001390047712318067 0.05283642698278917 0.07301733239520607 -0.023578333572783907 -0.018594095047211295 -0.06007847502215078 -0.03770861923251124 -0.010697237839589693 -0.0023218095136274186 0.046932619059502724
121 -0.055677046217689555 0.02373680904773729 0.010228238024172328 -0.052663143312591795 -0.010241190730214709 -0.006812904943390528 0.02199271443809959 -0.033294999963670434 0.03046395248245625 -0.0028442380633870406 0.045398665902515255 -0.08311271410119454 0.02117566629091189 -0.019818476438342173 -0.039797713996709456 0.030786190190285976 -0.004155904830743869 -0.0019473334125775313 0.045349190588153544 -0.011526904648884997 0.015440095493215181 0.03618509500908355 -0.001772333246966203 0.03305047564000623 0.04339285724840704 -0.01130195237437008 -0.011048761810733205 -0.033744666301312724 -0.0234580477865945 -0.005685333251243546 0.0013161904671939002 0.027578856152970167
122 -0.10451647374291151 0.03448709447513379 0.03127480966837278 -0.09968166529350649 -0.02262823840248443 -0.012184333447034337 0.03755780988805262 -0.0597686666880604 0.05038909483257504 -0.007060618961640145 0.08004233331441701 -0.15647195374947928 0.035599999988335185 -0.04328857149396624 -0.07878814406493413 0.05671804581790985 -0.0064272382074878325 -0.005004095151976105 0.08009676216170192 -0.025468762526759833 0.028572047154219554 0.06314909512903319 0.0007280477134156085 0.05551642703358084 0.07445752282815409 -0.023565190711191723 -0.01848638077284531 -0.061863665532049104 -0.039804190663354735 -0.010796571172596444 -0.002774000007082664 0.04711000002100177
123 -0.05204204631237579 0.02233842806890607 0.008464333246506396 -0.04966814326915136 -0.011223857417722425 -0.005281238244303192 0.020988428726836685 -0.030484952356865897 0.02949619060382247 -0.0034709523869900123 0.044110856407011546 -0.07603876166173168 0.020456475831451826 -0.018183428786869626 -0.03621123781582961 0.030491333019675777 -0.0052172857935407334 -0.000439666741017607 0.04189028573178109 -0.009478618945909798 0.01412071450613439 0.03501804743982142 -0.001483333274899494 0.03041066606099429 0.041883952594140454 -0.011369523801910137 -0.010481380825998107 -0.031265380567804514 -0.022850333524513104 -0.005058428449999718 0.0009356190677776578 0.02745190378101099
124 -0.1025755213507052 0.03337052313699609 0.031223428690628635 -0.09711195154176537 -0.021939714494649144 -0.012209000124130398 0.03855561949257251 -0.056249761729607904 0.05019647577067926 -0.006759476117579089 0.07850680954288691 -0.15178219120328626 0.03367380954677217 -0.043352095205115064 -0.07590800115195591 0.0559363316999571 -0.007369095315447166 -0.004269190359905008 0.07834557162242986 -0.02617919106393986 0.02916109477380468 0.06357290459813417 0.0005556191484044705 0.05456856975797564 0.07247923713986806 -0.02355933357917127 -0.018008714183192102 -0.05952899891625358 -0.03769457167280572 -0.01188638067937323 -0.002163000000152914 0.047991857126665614
125 -0.051632474858446846 0.021893713789592897 0.010044618986458295 -0.05060000045618619 -0.011399524113715285 -0.005243381134711117 0.021380000176750832 -0.0308849523647777 0.03085276199826261 -0.001400904716103382 0.04306038017273836 -0.07975742832751989 0.021493809142460425 -0.019855047879294336 -0.037492380693687925 0.029425285390711257 -0.004191000039489674 -0.0011754762353597297 0.043467190460346285 -0.01226533324405041 0.015531571670657112 0.03628176168006446 -0.0006158094232281049 0.03318023747955782 0.04145219063918505 -0.010791571416207478 -0.010351095139672648 -0.032143332970528196 -0.02193090493702108 -0.004625285598671152 0.0015246190845833293 0.026516808568322586
126 -0.1038118546407315 0.03366466599427873 0.03058123820283938 -0.09794418964329885 -0.021628714488109664 -0.012533238215837628 0.03887414331048993 -0.05740971412870706 0.05032880910273109 -0.006367809456562446 0.07999223811618451 -0.15282266731152222 0.03376766668363763 -0.0437205713852087 -0.07734071544837207 0.05621699835839016 -0.0063805238765087865 -0.003930952294640953 0.08048000024809014 -0.02598071487002363 0.03047504719246977 0.06398219032451466 0.00035238103564119055 0.054242426912034195 0.07383590378144402 -0.022840000245542752 -0.01853066656933931 -0.06080799893173944 -0.03833790499317859 -0.012089714030956938 -0.0012837619066149706 0.049118428507686725
127 -0.1010256166281622 0.032691999205521176 0.0303150953702806 -0.09706337956595235 -0.022609762215454663 -0.010105714404268102 0.037326428947770704 -0.05835228574956307 0.04890828535315536 -0.006762476134878982 0.07862476187957716 -0.15113976311736874 0.03385138091938903 -0.041851380989620726 -0.07614576312646802 0.05438985531440094 -0.005931904849906762 -0.005261428471255515 0.0779928573673325 -0.024913667286108693 0.028074618603568524 0.062191666573718454 0.001528095337562263 0.05225947459915742 0.07188818954385906 -0.023887857373449065 -0.017363190303426347 -0.060585665502003394 -0.038675000181510336 -0.011123047365496555 -0.0018582380809155957 0.04761123809675198
128 -0.054660855809093585 0.022882475722802893 0.010446809431804078 -0.05075766710381556 -0.01150476218983732 -0.0050376668569654046 0.023215381101527738 -0.03118976182581502 0.031808809598996526 -0.0033078094850116898 0.043140856349574666 -0.08032476176768319 0.022198618677932592 -0.018626762136548115 -0.03828871400383789 0.031009047330978017 -0.00420209527337214 -0.0011251905373120237 0.04432571435435897 -0.011535714206513063 0.016568238370209223 0.03671533310054136 -0.0022135713536824498 0.032694332776286285 0.043187904867365776 -0.01186071429297694 -0.011252761820200942 -0.03160171392318305 -0.022767476363307133 -0.005170285579792801 0.001303809531410003 0.026816284777374848
129 -0.03570938017219305 0.014969333162298426 0.01387985669342535 -0.032001619246633105 -0.007969952143390574 -0.005900285671010525 0.017218999592365607 -0.0198960475376918 0.017427190356621786 -0.003718095299388681 0.024208142413824265 -0.05075723671775666 0.011939856971626537 -0.014263428543927148 -0.020711047802164796 0.014339809868639955 -0.0032416190162101494 6.357143034360238e-05 0.027033857424699125 -0.005953666760996427 0.00761909544789454 0.019299904865744923 0.0008230476593044365 0.020537571305231678 0.023657428721586864 -0.002807095164566168 -0.001442095171937364 -0.018169714353418732 -0.012551143070422335 -0.0038687619186627367 0.0015826190965959714 0.01936942821235529
130 -0.05474442724205021 0.023819047159382274 0.009485476118113314 -0.05174514330740619 -0.01087919075425383 -0.005670523984701417 0.02231214300263673 -0.03179352374891529 0.029609381066014368 -0.0038360952305430103 0.04471390400569709 -0.08035890465197597 0.02108038060985217 -0.018864381164132197 -0.037773571126828234 0.031730571149160995 -0.004797142930328846 -0.0008861429163343495 0.04471300005735386 -0.009872523716434703 0.01445019071079081 0.03612895217901539 -0.0010241427946658362 0.03250904704812759 0.04345309538101511 -0.01159842856612245 -0.011307190351501396 -0.033449475828092545 -0.023653238246749555 -0.005361380831648906 0.0009353809596394145 0.027956379976655756
131 -0.053987284373891144 0.023756666208750436 0.010858761800807856 -0.05309809563637134 -0.010284809833614244 -0.004128666881505134 0.021476571570106205 -0.03284423806360878 0.02892490489674466 -0.0018059047648594493 0.04650576111938184 -0.08073528565970871 0.019489094886618357 -0.02192628594119534 -0.03893466643612122 0.032400475875918 -0.002459047633844117 0.00026042850887668986 0.04394719051197171 -0.00927233319643641 0.01662561926890963 0.035903714096916485 0.00046547625346907547 0.03192342803785799 0.04434971440128893 -0.011335333343595266 -0.011654523716840361 -0.03336080916536351 -0.023663381078568774 -0.0027499046686681964 0.0020994286474195264 0.02760328474410233
132 -0.05209571297746152 0.022120570930253183 0.008270714210257643 -0.04902442899349678 -0.010482143138688116 -0.004367190650165347 0.02202333348603653 -0.029565523769373873 0.028425762052869515 -0.0027670476313990853 0.04362261826394215 -0.07555204736196347 0.019733571086405954 -0.01864428592983001 -0.035723380672390614 0.029958237769148712 -0.005097428636093225 -0.0004422857531435078 0.04277261905372143 -0.009726523713436023 0.013633762137033045 0.035744809334920274 -0.0006069999321230821 0.03029623747196248 0.04122742877474853 -0.01203371427982347 -0.010927333209976842 -0.03172023771497022 -0.021331714455127007 -0.005556333211383649 0.0009334285970821622 0.027757903782739526
133 -0.05195847487941917 0.021401856632326684 0.00942566656019716 -0.04868066706556073 -0.011849428853305912 -0.0046483811165671796 0.02189166682572769 -0.02988119043376563 0.031695619136804624 -0.0029426666414586918 0.04253780875088913 -0.07600461877743891 0.021574713899532243 -0.017945809759285544 -0.03672638069283927 0.029769809201492796 -0.004622238136584028 -0.0006787143619952812 0.04150300002878621 -0.011141809435988156 0.016238762165552804 0.03560442836134739 -0.0026727618339161077 0.030595951789152986 0.041618762080491124 -0.011631809528764626 -0.010426952294697653 -0.029417618662895013 -0.021964571641070678 -0.004867333198143612 0.0013040476395482464 0.026311808581730083
134 -0.03686318967291819 0.014199142708786808 0.014748904283069783 -0.032516047824174166 -0.008984285505859935 -0.0048569047066848725 0.016367428126700577 -0.020456999877101874 0.01878457134478681 -0.003093238161887885 0.025356190013034 -0.05210871289905515 0.011948571273803412 -0.014801142799634752 -0.019795523995223146 0.015917952757306574 -0.003837428553240551 0.002083571367187514 0.028460905044561342 -0.009630333373068078 0.008650809728784398 0.020157333413538123 0.0020176667007728525 0.021278714140256245 0.024084666835343733 -0.0023681427895401916 -0.0012240951307051415 -0.01821909533810824 -0.013472524042645958 -0.00459252378814632 0.001568095282155333 0.019273571082435194
135 -0.11679252087404686 0.03979385643088747 0.03415223835257902 -0.11074104680474625 -0.025267952598542684 -0.014894809709706655 0.04268538128928326 -0.06574419007509798 0.05930599929498775 -0.008985618956752919 0.09075228607703355 -0.17152009602813495 0.03972757135869913 -0.047749523694316544 -0.08563347734577421 0.06335009357315444 -0.008025666754249306 -0.005469428536127366 0.0882292385213077 -0.028741333836695134 0.03532019016122268 0.07137242807047664 -0.0006227618183142372 0.06243318909712668 0.08336814168363899 -0.025541333659064202 -0.019679618862504696 -0.06725018930141925 -0.0468628571058313 -0.011999237838955153 -0.001714095246002433 0.0545410003147221
136 -0.051689904305108246 0.020707095180114266 0.01763909494149543 -0.044146809521840795 -0.01204671389755926 -0.0049718094149804005 0.02252018986092437 -0.02626652370755827 0.023695476181317298 -0.0028801906228181906 0.03637852319072755 -0.07340480747543984 0.015639999764451722 -0.01903442854555102 -0.03199180961209571 0.02536700010144462 -0.0033475237086393115 -0.0005800000757777265 0.03848166750477893 -0.015209476376185194 0.011781857287999065 0.03216452417074747 0.0015540000361700852 0.02576480957768148 0.03624061919704434 -0.011319047411061114 -0.0025380000117279236 -0.026478952843934252 -0.020737476439015672 -0.009532571529104774 0.001405952426250137 0.027191047179734425
137 -0.02439038061891638 0.01325995235362955 0.00707961883225445 -0.028731952558397705 -0.003144428505384851 -0.008819904749370402 0.008664333096974241 -0.016617666494788692 0.012262142756645474 -0.0025184763085451863 0.022158570694349084 -0.03705704669950397 0.012404999671118622 -0.010465618938074581 -0.01950790481974504 0.009317047808075412 -0.007990857304927582 -0.003503809434602902 0.026012428936415484 -0.008209476298708026 0.008708666926915092 0.021135428776254968 -0.00045352380367971604 0.010052475961856544 0.019844905032576726 -0.0020748094553017012 -0.003710333176145685 -0.014260523982340515 -0.011955047902163295 -0.008121095277601853 0.004843761828461928 0.012851285426655696
138 -0.03569138015709108 0.012283190373896755 0.01136928537882687 -0.02818161921043481 -0.008343142683207546 -0.002174904775096192 0.013033380532371146 -0.019391714279273792 0.02022566653544172 -0.005820380941648702 0.022058951923446285 -0.05081733211963659 0.00946057126635597 -0.013088952350829328 -0.02516966681772222 0.01697895262068847 -0.003209380888923382 0.003052666719581577 0.027171000222941593 -0.007158666671741577 0.008656238305515476 0.020108762086324748 0.0017789047578844475 0.019762904646562503 0.02588409545742685 -0.0034027142897858063 -0.0037156666110691036 -0.020036142878173752 -0.013631666864274024 -0.00465338091487952 5.5380952766253833e-05 0.01713442818505601
139 -0.052307855853411765 0.022803618561565167 0.008314285626901048 -0.05022480987411525 -0.010368809841262797 -0.00242861922846974 0.022020428740818585 -0.02988233332178511 0.026632476354106552 -0.0018050000293269044 0.04580538012253653 -0.07572933311236002 0.018265856806205454 -0.020890952612847156 -0.036563333096204416 0.032152571061271285 -0.004007619090511331 0.0007987618501785965 0.04263023810372466 -0.008880761768696607 0.015049143056828706 0.035265237923123915 0.0006922381331345864 0.029049380353951295 0.042224333521776965 -0.012001714297747683 -0.011906809417442196 -0.03133947580742339 -0.021497381083290315 -0.004268714171346454 -9.257136844098568e-05 0.02902223706422817
140 -0.05466295116292756 0.023947666099827205 0.01006780941748903 -0.05258204803491632 -0.012013524099962697 -0.004205238277791068 0.02029257160167964 -0.033077952288468146 0.02967552395005311 -0.002312095214923223 0.04699123735883318 -0.0803175236450486 0.02031095204542258 -0.021666428804261766 -0.0392016664402382 0.0330277616490743 -0.004110666673763522 -0.00025842865995530574 0.043210761987471154 -0.009917809387497116 0.017670762048856842 0.03576466648346035 0.0001076191020686002 0.029749666056540308 0.04246085732510047 -0.011134047637737933 -0.011100571325403593 -0.029728190075340017 -0.02321390493584442 -0.0039009046546804407 0.0011282381379888171 0.02934818947687745
141 -0.10252185468561947 0.03358838027564898 0.03141704772687739 -0.09775566581741996 -0.02268142877368345 -0.013123047718268242 0.037520714733372665 -0.057169190317099924 0.051266904321632216 -0.007463380873170016 0.07899504768595632 -0.15226890550305447 0.034396714291818044 -0.04289123806215468 -0.0763958582953949 0.05646942695048416 -0.007488952472894674 -0.004266571347779106 0.07746323830048953 -0.025931286296413635 0.029648047142906024 0.06284614270303532 -0.00032071419437194155 0.05468299834700745 0.07313576095925998 -0.022895143101257936 -0.017562761799213365 -0.05907414176908787 -0.03921319074219182 -0.0113884759179893 -0.0021608095294574185 0.04768585712493708
142 -0.1064605689053202 0.03536314222340783 0.03179600011069505 -0.10066490395720826 -0.022025762103675378 -0.013836571550373697 0.03916295282709013 -0.059637714108248474 0.05151242811587595 -0.007436857055706371 0.08108352385793946 -0.15762952460153473 0.03511447620708384 -0.043940666619510876 -0.07939090590280969 0.05798933173840245 -0.006080238170744408 -0.0043748094578317945 0.08242038125172257 -0.02612671487302231 0.03129147576622754 0.06436633316860978 -6.476182690156358e-05 0.056455236488199306 0.0760615703877106 -0.022404714531841733 -0.018910523710863863 -0.06253723704486176 -0.04065942878480114 -0.011894761651222194 -0.0012818095440577184 0.04931690470160296
143 -0.10310409276834911 0.03308276110328734 0.02941785727272786 -0.09779318908113055 -0.021920190780379233 -0.011205238204205497 0.03758752418936984 -0.05870061910761814 0.04933780915148202 -0.005599904701479578 0.08043647614595968 -0.15270557256770276 0.03434704760175442 -0.04343695243975768 -0.07817066790691267 0.05522637909633063 -0.005738952474313832 -0.00422199992352121 0.08029080978372977 -0.02512428632984492 0.02906957099912688 0.06317423801131856 0.0009419524631950827 0.05297747461147429 0.07358852286346346 -0.023281143091264226 -0.018628476017467966 -0.06141342743441263 -0.03812600019210506 -0.011194856903914894 -0.0018967142761019723 0.04803809520810665
144 -0.054078665312512646 0.023769285252672575 0.010872952318528578 -0.05234414332274658 -0.011969762182681214 -0.006124714482298475 0.022302095406866146 -0.03175133328408092 0.030626333443381424 -0.002630999963176215 0.04447609447275421 -0.08179047606037264 0.021613428213944037 -0.019085095478485095 -0.03855019017854439 0.030849142565525005 -0.004058523846435405 -0.0018797619684067155 0.04473161909152709 -0.011809857033464747 0.015434904999676206 0.03624114262250563 -0.0006676189534898315 0.03370585660464019 0.042597000110184864 -0.011189857125351583 -0.010814666561297296 -0.03315599965364007 -0.023423047791722985 -0.0038196189506422905 0.002723142895514944 0.02747742762966525
145 -0.05347347497341356 0.02376238038275568 0.010332999906192223 -0.05231971469973879 -0.012068000283934885 -0.004564904944605327 0.020894952550796524 -0.03178095229114184 0.02930714300877991 -0.0026601428565170082 0.04737271352704348 -0.07928795219326969 0.020558713951946368 -0.021816857379148825 -0.03959914263049584 0.033975999702566435 -0.0038047619108554152 -2.5190540500694797e-05 0.042964428663253784 -0.010353047492875097 0.01747671444900334 0.036567571272219844 -0.0005456190001929091 0.029605047005350656 0.04269700017314227 -0.011063571442805585 -0.011230666556262545 -0.030884237682801626 -0.023105619217468693 -0.004376809412081327 0.0009632857649454049 0.028854808526202327
146 -0.04731185650979612 0.016114952478563368 0.013172999602656568 -0.04179099994057435 -0.011671523818568815 -0.008042190544074401 0.017498666572334644 -0.02575390461119501 0.02011161915669661 -0.006304952426857892 0.031963665943337785 -0.07107385635996859 0.014538237766828388 -0.015533428561563293 -0.03001076176518663 0.020037095561357483 -0.005653999928784158 -0.003282047553165328 0.037076191239369415 -0.008353143029602333 0.01041166703102395 0.02595004760743385 -0.0014700000014965468 0.028481237751076974 0.035049905227164606 -0.010288333125312679 -0.001112095195345492 -0.029100952910431216 -0.019617666742609192 -0.010727904660771378 -0.0004129047038510353 0.026768951931790935
