8 32
repeated 0.0551445 0.0265915 0.0670474 -0.0371429 -0.0096646 0.042872 -0.0383199 0.0688177 -0.00393733 -0.00853323 -0.00312792 -0.00832741 -0.0266716 0.0375786 -0.0496714 -0.0387494 0.039276 -0.0118648 0.0219536 0.080982 -0.0690047 0.0574347 0.00509386 -0.0428992 -0.0299832 0.0872703 0.0304445 0.0451009 0.0186653 0.0368913 0.00389333 0.0503715 
send 0.032948 -0.00456766 0.0177541 -0.0308439 -0.0130857 3.94524e-05 -0.00897918 -0.00974111 0.041662 0.00149882 0.0105133 -0.00997753 -0.019322 0.0378782 -0.0374407 -0.0186384 0.00667812 0.000137898 0.0343715 -0.0219432 -0.0238854 -0.0312756 0.0595639 0.0561095 0.0137272 -9.39542e-05 -0.0602909 -0.0255072 -0.00110002 -0.0467899 0.0220655 0.0101736 
with -0.019981 0.00249825 0.00190443 0.0195263 -0.111235 -0.0358862 -0.0085428 -0.0178812 -0.00454345 0.0322785 -0.0300176 0.0102785 -0.044516 -0.000253255 -0.0113827 -0.0445754 -0.0294973 -0.0411215 -0.0206662 -0.00024599 0.00873807 -0.0184876 -0.0151396 0.0738688 0.0331815 0.0349978 0.0486543 0.016517 -0.0103291 0.00219574 0.0244831 -0.0151828 
for -0.0273131 0.034236 -0.0565081 -0.0557444 0.0435511 0.0445013 -0.00350219 -0.0114419 0.00720817 -0.0506666 -0.022282 0.0443392 -0.0212738 -0.000147676 -0.025503 -0.0481281 -0.0314528 -0.0263683 -0.0113969 0.015109 -0.0130727 0.0520908 -0.00594756 0.0105396 0.0235864 -0.0306659 0.00943172 -0.0419025 0.00446987 0.0425799 0.00625156 -0.0222281 
set 0.00759543 0.0120798 0.014837 0.0197758 0.0181055 -0.0289651 0.0388331 0.0150381 0.0514287 0.00852122 -0.0272997 -0.0178353 0.0214746 0.0423095 -0.058626 -0.0450013 0.00970675 -0.0901743 0.0151464 0.00641778 -0.0166781 -0.00164173 0.0301091 0.0401587 0.00527954 -0.0219074 -0.056741 0.000102441 0.0341827 -0.0285107 0.0110068 -0.0158724 
logined 0.00385956 -0.0429386 -0.00290136 -0.00542427 -0.00828317 -0.0329735 0.0412916 0.0187581 -0.0542305 -0.0538853 -0.0318497 0.0354828 -0.0191089 -0.0264741 0.048388 0.0219251 0.071778 -0.0119335 0.00546156 0.03945 -0.0347244 0.0256624 -0.0326256 0.00421982 0.00697202 0.0310808 0.00127323 -0.0346287 -0.0204164 -0.00396876 -0.013965 -0.0122091 
changed 0.00118313 -0.00128401 -0.0166062 0.00155434 0.0539532 -0.0348567 -0.0108677 0.012293 0.0019964 -0.056213 -0.0120838 -0.0511155 -0.00673261 -0.0383279 0.0256637 -0.0200151 0.0168288 0.0664492 0.0158382 -0.0328564 0.0757116 0.0169732 -0.0168569 0.0574727 -0.0472534 -0.0370951 -0.000630718 -0.0147242 -0.0118862 -0.010451 0.0375201 -0.00718603 
Lost -0.0181936 0.0475841 0.00361309 -0.0213604 0.0388312 -0.0425009 -0.0265495 0.0133006 -0.0442015 -0.0461511 -0.0112639 -0.0168272 0.031073 -0.0423214 -0.0457533 -0.0658901 0.0895181 -0.000991172 -0.00989683 0.011204 0.0133528 -0.0153954 0.0347355 -0.0576124 -0.0156886 -0.033666 -0.0123041 0.0389142 0.073129 -0.0427076 0.0966669 -0.0185681 
